svm_type c_svc
kernel_type rbf
gamma 0.5
nr_class 2
total_sv 1111
rho 53.3229
label 1 0
nr_sv 573 538
SV
8192 1:-0.982074 2:-0.951515 3:-0.950413 4:-0.985765 5:-0.956522 6:-0.967213 7:-0.819906 8:-0.898088 9:-0.891507 10:-0.985816 11:0.650007 
8192 1:-0.951344 2:-0.915152 3:-0.917355 4:-0.950178 5:-0.923913 6:-0.959016 7:-0.868682 8:-0.941555 9:-0.951132 10:-0.966903 11:1 
8192 1:-0.677337 2:-0.745455 3:-0.471074 4:-0.658363 5:-0.771739 6:-0.614754 7:-0.802189 8:-0.93432 9:-0.922238 10:-0.702128 11:0.382332 
8192 1:-0.951344 2:-0.975758 3:-0.950413 4:-1 5:-0.978261 6:-0.942623 7:-0.809588 8:-0.944599 9:-0.935766 10:-0.981087 11:-0.244295 
8192 1:-0.864277 2:-0.854545 3:-0.900826 4:-0.907473 5:-0.826087 6:-0.901639 7:-0.824631 8:-0.930073 9:-0.914221 10:-0.891253 11:0.000139997 
8192 1:-0.966709 2:-0.975758 3:-0.917355 4:-0.985765 5:-0.978261 6:-0.95082 7:-0.86354 8:-0.921748 9:-0.931223 10:-0.985816 11:0.650007 
8192 1:-0.982074 2:-0.963636 3:-0.950413 4:-0.992883 5:-0.967391 6:-0.97541 7:-0.812923 8:-0.922518 9:-0.909278 10:-0.995272 11:1 
8192 1:-0.510883 2:-0.369697 3:-0.553719 4:-0.47331 5:-0.402174 6:-0.622951 7:-0.792427 8:-0.944355 9:-0.902898 10:-0.546099 11:0.390172 
8192 1:-0.976953 2:-0.963636 3:-0.950413 4:-0.992883 5:-0.967391 6:-0.959016 7:-0.800139 8:-0.935805 9:-0.914923 10:-0.985816 11:0.300014 
4805.079734329693 1:-0.677337 2:-0.648485 3:-0.619835 4:-0.66548 5:-0.684783 6:-0.704918 7:-0.834567 8:-0.919774 9:-0.916292 10:-0.716312 11:0.440011 
8192 1:-0.987196 2:-0.951515 3:-0.983471 4:-1 5:-0.956522 6:-0.97541 7:-0.73382 8:-0.961381 9:-0.849587 10:-0.990544 11:0.200056 
8192 1:-0.877081 2:-0.854545 3:-0.900826 4:-0.907473 5:-0.826087 6:-0.909836 7:-0.81202 8:-0.913704 9:-0.896451 10:-0.895981 11:0.0667787 
8192 1:-0.933419 2:-0.987879 3:-0.85124 4:-0.964413 5:-0.956522 6:-0.877049 7:-0.807365 8:-0.94413 9:-0.960184 10:-0.933806 11:-0.326333 
8192 1:-0.713188 2:-0.684848 3:-0.603306 4:-0.679715 5:-0.706522 6:-0.754098 7:-0.739204 8:-0.929058 9:-0.877144 10:-0.754137 11:0.656167 
8192 1:-0.953905 2:-0.963636 3:-0.933884 4:-0.985765 5:-0.967391 6:-0.92623 7:-0.861907 8:-0.958901 9:-0.969436 10:-0.966903 11:-0.166737 
8192 1:-0.90781 2:-0.939394 3:-0.950413 4:-0.978648 5:-0.934783 6:-0.92623 7:-0.834358 8:-0.936331 9:-0.926079 10:-0.952719 11:-0.306734 
8192 1:-0.987196 2:-0.963636 3:-0.966942 4:-1 5:-0.967391 6:-0.983607 7:-0.785722 8:-0.950745 9:-0.909445 10:-1 11:1 
8192 1:-0.841229 2:-0.878788 3:-0.818182 4:-0.886121 5:-0.836957 6:-0.860656 7:-0.852562 8:-0.94304 9:-0.947557 10:-0.87234 11:0.0373793 
8192 1:-0.976953 2:-0.987879 3:-0.933884 4:-1 5:-0.967391 6:-0.959016 7:-0.742053 8:-0.932685 9:-0.922772 10:-0.985816 11:-0.049979 
8192 1:-0.984635 2:-0.951515 3:-0.983471 4:-1 5:-0.956522 6:-0.983607 7:-0.763696 8:-0.958468 9:-0.871566 10:-0.995272 11:0.533249 
8192 1:-0.971831 2:-0.951515 3:-0.966942 4:-0.992883 5:-0.956522 6:-0.983607 7:-0.851068 8:-0.914325 9:-0.921837 10:-0.995272 11:1 
1086.534489202865 1:-0.631242 2:-0.709091 3:-0.520661 4:-0.658363 5:-0.728261 6:-0.680328 7:-0.770471 8:-0.933023 9:-0.902998 10:-0.72104 11:0.51869 
8192 1:-0.992318 2:-0.987879 3:-0.933884 4:-1 5:-0.98913 6:-0.967213 7:-0.825777 8:-0.937195 9:-0.945286 10:-1 11:1 
8192 1:-0.959027 2:-0.951515 3:-0.983471 4:-1 5:-0.913043 6:-0.934426 7:-0.90436 8:-0.947945 9:-0.976017 10:-0.947991 11:-0.924962 
8192 1:-0.846351 2:-0.842424 3:-0.884298 4:-0.893238 5:-0.847826 6:-0.852459 7:-0.874657 8:-0.948039 9:-0.957411 10:-0.87234 11:-0.049979 
8192 1:-0.871959 2:-0.842424 3:-0.900826 4:-0.900356 5:-0.858696 6:-0.885246 7:-0.868994 8:-0.953357 9:-0.955708 10:-0.895981 11:0.170377 
8192 1:-0.912932 2:-0.890909 3:-0.884298 4:-0.921708 5:-0.880435 6:-0.893443 7:-0.86618 8:-0.943641 9:-0.951866 10:-0.910165 11:0.0667787 
8192 1:-0.964149 2:-0.963636 3:-0.950413 4:-0.992883 5:-0.945652 6:-0.967213 7:-0.807573 8:-0.931257 9:-0.914489 10:-0.981087 11:0.0667787 
8192 1:-0.966709 2:-0.987879 3:-0.933884 4:-1 5:-0.945652 6:-0.95082 7:-0.705367 8:-0.94926 9:-0.939273 10:-0.971631 11:-0.527369 
8192 1:-0.956466 2:-0.975758 3:-0.917355 4:-0.985765 5:-0.967391 6:-0.918033 7:-0.842279 8:-0.934207 9:-0.941211 10:-0.962175 11:-0.292174 
8192 1:-0.93854 2:-0.975758 3:-0.933884 4:-0.992883 5:-0.967391 6:-0.942623 7:-0.779573 8:-0.912972 9:-0.894313 10:-0.976359 11:-0.119978 
5456.539238951274 1:-0.0601793 2:0.163636 3:-0.190083 4:-0.00355872 5:0.0869565 6:-0.278689 7:-0.811464 8:-0.93509 9:-0.909077 10:-0.134752 11:0.359653 
8192 1:-0.956466 2:-0.963636 3:-0.900826 4:-0.97153 5:-0.967391 6:-0.934426 7:-0.846865 8:-0.923157 9:-0.927916 10:-0.971631 11:0.49097 
8192 1:-0.910371 2:-0.951515 3:-0.917355 4:-0.97153 5:-0.923913 6:-0.92623 7:-0.905402 8:-0.949222 9:-0.97752 10:-0.947991 11:-0.224976 
8192 1:-0.710627 2:-0.684848 3:-0.768595 4:-0.75089 5:-0.695652 6:-0.737705 7:-0.859232 8:-0.940127 9:-0.942848 10:-0.739953 11:0.0667787 
8192 1:-0.915493 2:-0.915152 3:-0.950413 4:-0.964413 5:-0.913043 6:-0.918033 7:-0.829008 8:-0.93167 9:-0.916559 10:-0.938534 11:-0.244295 
8192 1:-0.979513 2:-0.987879 3:-0.917355 4:-0.992883 5:-0.98913 6:-0.959016 7:-0.856488 8:-0.926202 9:-0.935766 10:-0.995272 11:1 
8192 1:-0.979513 2:-0.963636 3:-0.966942 4:-1 5:-0.956522 6:-0.97541 7:-0.829842 8:-0.951045 9:-0.935098 10:-0.990544 11:0.200056 
3792.972580056516 1:-0.518566 2:-0.575758 3:-0.454545 4:-0.551601 5:-0.576087 6:-0.606557 7:-0.832447 8:-0.935729 9:-0.92972 10:-0.612293 11:0.388492 
8192 1:-0.966709 2:-0.963636 3:-0.884298 4:-0.964413 5:-0.967391 6:-0.92623 7:-0.843286 8:-0.943998 9:-0.953203 10:-0.966903 11:0.533249 
8192 1:-0.959027 2:-0.975758 3:-0.933884 4:-0.992883 5:-0.967391 6:-0.942623 7:-0.804482 8:-0.957247 9:-0.954772 10:-0.976359 11:-0.119978 
8192 1:-0.96927 2:-0.963636 3:-0.933884 4:-0.985765 5:-0.967391 6:-0.959016 7:-0.884176 8:-0.928663 9:-0.947891 10:-0.985816 11:0.650007 
8192 1:-0.797695 2:-0.806061 3:-0.752066 4:-0.814947 5:-0.804348 6:-0.795082 7:-0.865277 8:-0.934433 9:-0.944818 10:-0.820331 11:0.218536 
8192 1:-0.987196 2:-0.963636 3:-0.966942 4:-1 5:-0.967391 6:-0.983607 7:-0.828418 8:-0.94319 9:-0.928685 10:-1 11:1 
8192 1:-0.725992 2:-0.745455 3:-0.586777 4:-0.708185 5:-0.771739 6:-0.688525 7:-0.840125 8:-0.945088 9:-0.944852 10:-0.744681 11:0.383172 
1614.562353223369 1:-0.766965 2:-0.721212 3:-0.603306 4:-0.701068 5:-0.75 6:-0.770492 7:-0.735904 8:-0.943359 9:-0.892409 10:-0.782506 11:0.780484 
8192 1:-0.846351 2:-0.793939 3:-0.917355 4:-0.879004 5:-0.793478 6:-0.852459 7:-0.891541 8:-0.951346 9:-0.967833 10:-0.8487 11:-0.135097 
8192 1:-0.90781 2:-0.915152 3:-0.85124 4:-0.921708 5:-0.902174 6:-0.877049 7:-0.810283 8:-0.936068 9:-0.924342 10:-0.910165 11:0.0667787 
8192 1:-0.93598 2:-0.951515 3:-0.917355 4:-0.97153 5:-0.945652 6:-0.92623 7:-0.80403 8:-0.941837 9:-0.926914 10:-0.957447 11:0.000139997 
8192 1:-0.96927 2:-0.939394 3:-0.983471 4:-0.992883 5:-0.945652 6:-0.97541 7:-0.839534 8:-0.929265 9:-0.918564 10:-0.985816 11:0.300014 
8192 1:-0.90781 2:-0.939394 3:-0.917355 4:-0.964413 5:-0.934783 6:-0.934426 7:-0.860657 8:-0.936274 9:-0.944451 10:-0.957447 11:0.200056 
8192 1:-0.966709 2:-0.951515 3:-0.983471 4:-1 5:-0.956522 6:-0.95082 7:-0.867883 8:-0.954616 9:-0.95033 10:-0.976359 11:-0.399972 
8192 1:-0.959027 2:-0.951515 3:-0.933884 4:-0.978648 5:-0.945652 6:-0.95082 7:-0.839708 8:-0.945614 9:-0.942681 10:-0.971631 11:0.236455 
8192 1:-0.946223 2:-0.975758 3:-0.950413 4:-1 5:-0.978261 6:-0.934426 7:-0.778878 8:-0.952455 9:-0.932326 10:-0.976359 11:-0.399972 
8192 1:-0.879641 2:-0.878788 3:-0.900826 4:-0.921708 5:-0.891304 6:-0.860656 7:-0.864409 8:-0.953432 9:-0.955541 10:-0.895981 11:-0.140697 
8192 1:-0.941101 2:-0.963636 3:-0.884298 4:-0.964413 5:-0.956522 6:-0.92623 7:-0.839639 8:-0.935654 9:-0.941779 10:-0.962175 11:0.353773 
8192 1:-0.964149 2:-0.951515 3:-0.966942 4:-0.992883 5:-0.956522 6:-0.967213 7:-0.827341 8:-0.959295 9:-0.933294 10:-0.985816 11:0.300014 
8192 1:-0.953905 2:-0.951515 3:-0.983471 4:-1 5:-0.923913 6:-0.983607 7:-0.877332 8:-0.95969 9:-0.959382 10:-0.981087 11:-0.244295 
2026.271451723485 1:-0.306018 2:-0.139394 3:-0.256198 4:-0.209964 5:-0.228261 6:-0.401639 7:-0.839986 8:-0.937252 9:-0.930656 10:-0.34279 11:0.455691 
8192 1:-0.910371 2:-0.927273 3:-0.933884 4:-0.964413 5:-0.934783 6:-0.901639 7:-0.861039 8:-0.908086 9:-0.922572 10:-0.938534 11:-0.244295 
2818.929997865314 1:-0.815621 2:-0.684848 3:-0.735537 4:-0.736655 5:-0.717391 6:-0.836066 7:-0.847004 8:-0.945633 9:-0.940175 10:-0.806147 11:0.756405 
8192 1:-0.738796 2:-0.806061 3:-0.768595 4:-0.822064 5:-0.815217 6:-0.745902 7:-0.85152 8:-0.951665 9:-0.951833 10:-0.79669 11:-0.049979 
8192 1:-0.976953 2:-0.939394 3:-0.933884 4:-0.97153 5:-0.945652 6:-0.959016 7:-0.508772 8:-0.937383 9:-0.756225 10:-0.976359 11:0.720006 
1281.9240942301 1:-0.485275 2:-0.6 3:-0.0743802 4:-0.402135 5:-0.641304 6:-0.434426 7:-0.748098 8:-0.926634 9:-0.896217 10:-0.541371 11:0.643007 
8192 1:-0.961588 2:-0.975758 3:-0.917355 4:-0.985765 5:-0.978261 6:-0.942623 7:-0.898593 8:-0.926897 9:-0.947424 10:-0.981087 11:0.377852 
8192 1:-0.766965 2:-0.793939 3:-0.818182 4:-0.836299 5:-0.695652 6:-0.844262 7:-0.806913 8:-0.897618 9:-0.883858 10:-0.801418 11:-0.132017 
8192 1:-0.982074 2:-0.951515 3:-0.966942 4:-0.992883 5:-0.956522 6:-0.983607 7:-0.788883 8:-0.944693 9:-0.899992 10:-0.995272 11:1 
8192 1:-0.644046 2:-0.684848 3:-0.570248 4:-0.66548 5:-0.706522 6:-0.721311 7:-0.791211 8:-0.949711 9:-0.923006 10:-0.735225 11:0.587008 
8192 1:-0.526248 2:-0.406061 3:-0.619835 4:-0.523132 5:-0.434783 6:-0.696721 7:-0.767865 8:-0.940108 9:-0.882188 10:-0.602837 11:0.465211 
8192 1:-0.992318 2:-0.987879 3:-0.933884 4:-1 5:-0.98913 6:-0.967213 7:-0.88157 8:-0.936481 9:-0.954973 10:-1 11:1 
8192 1:-0.618438 2:-0.721212 3:-0.570248 4:-0.686833 5:-0.728261 6:-0.639344 7:-0.831023 8:-0.935617 9:-0.93109 10:-0.6974 11:0.188296 
2739.4813358111 1:-0.669654 2:-0.781818 3:-0.53719 4:-0.708185 5:-0.804348 6:-0.631148 7:-0.776133 8:-0.933606 9:-0.911983 10:-0.725768 11:0.244575 
8192 1:-0.930858 2:-0.878788 3:-0.933884 4:-0.935943 5:-0.880435 6:-0.92623 7:-0.830954 8:-0.948208 9:-0.925678 10:-0.929078 11:0.160017 
8192 1:-0.713188 2:-0.69697 3:-0.801653 4:-0.772242 5:-0.673913 6:-0.795082 7:-0.863436 8:-0.946667 9:-0.948593 10:-0.763593 11:0.0835783 
1982.282152451355 1:0.078105 2:0.115152 3:-0.0743802 4:0.0177936 5:0.0434783 6:0.0819672 7:-0.850234 8:-0.949561 9:-0.944651 10:0.0543735 11:0.0174997 
896.2330717369517 1:-0.892446 2:-0.866667 3:-0.917355 4:-0.921708 5:-0.847826 6:-0.909836 7:-0.699844 8:-0.93229 9:-0.83205 10:-0.905437 11:-0.00797984 
8192 1:-0.989757 2:-0.975758 3:-0.950413 4:-1 5:-0.978261 6:-0.97541 7:-0.817335 8:-0.903989 9:-0.895449 10:-1 11:1 
8192 1:-0.884763 2:-0.854545 3:-0.933884 4:-0.921708 5:-0.815217 6:-0.860656 7:-0.892652 8:-0.952605 9:-0.969603 10:-0.862884 11:-0.48229 
8192 1:-0.743918 2:-0.781818 3:-0.702479 4:-0.779359 5:-0.76087 6:-0.729508 7:-0.821678 8:-0.929922 9:-0.920067 10:-0.763593 11:0.0326193 
3333.98570570218 1:-0.462228 2:-0.369697 3:-0.404959 4:-0.409253 5:-0.402174 6:-0.565574 7:-0.77259 8:-0.937458 9:-0.893378 10:-0.513002 11:0.48145 
8192 1:-0.96927 2:-0.963636 3:-0.966942 4:-1 5:-0.967391 6:-0.95082 7:-0.845267 8:-0.944261 9:-0.939207 10:-0.981087 11:-0.244295 
8192 1:-0.96927 2:-0.963636 3:-0.966942 4:-1 5:-0.967391 6:-0.95082 7:-0.845267 8:-0.944261 9:-0.939207 10:-0.981087 11:-0.244295 
8192 1:-0.987196 2:-0.963636 3:-0.950413 4:-0.992883 5:-0.967391 6:-0.97541 7:-0.441654 8:-0.926615 9:-0.734413 10:-0.995272 11:1 
8192 1:-0.900128 2:-0.963636 3:-0.834711 4:-0.94306 5:-0.945652 6:-0.844262 7:-0.865416 8:-0.94552 9:-0.963724 10:-0.910165 11:-0.283214 
8192 1:-0.943662 2:-0.963636 3:-0.950413 4:-0.992883 5:-0.956522 6:-0.967213 7:-0.819628 8:-0.930994 9:-0.920033 10:-0.985816 11:0.300014 
8192 1:-0.912932 2:-0.927273 3:-0.884298 4:-0.94306 5:-0.934783 6:-0.893443 7:-0.878548 8:-0.933869 9:-0.950898 10:-0.933806 11:0.115778 
8192 1:-0.96927 2:-0.951515 3:-0.950413 4:-0.985765 5:-0.945652 6:-0.959016 7:-0.679034 8:-0.899798 9:-0.815382 10:-0.976359 11:0.160017 
8192 1:-0.892446 2:-0.915152 3:-0.900826 4:-0.94306 5:-0.913043 6:-0.893443 7:-0.828035 8:-0.941893 9:-0.931357 10:-0.92435 11:-0.0667787 
139.4406273678536 1:0.270166 2:0.224242 3:-0.272727 4:-0.00355872 5:0.173913 6:-0.42623 7:-0.801876 8:-0.936462 9:-0.901094 10:-0.182033 11:0.48089 
8192 1:-0.846351 2:-0.830303 3:-0.834711 4:-0.864769 5:-0.826087 6:-0.852459 7:-0.863714 8:-0.948659 9:-0.953603 10:-0.862884 11:0.176536 
8192 1:-0.889885 2:-0.890909 3:-0.933884 4:-0.94306 5:-0.880435 6:-0.909836 7:-0.828279 8:-0.938962 9:-0.920401 10:-0.919622 11:-0.145457 
8192 1:-0.974392 2:-0.987879 3:-0.900826 4:-0.985765 5:-0.98913 6:-0.95082 7:-0.866667 8:-0.910228 9:-0.912985 10:-0.990544 11:1 
8192 1:-0.979513 2:-0.963636 3:-0.950413 4:-0.992883 5:-0.967391 6:-0.967213 7:-0.830571 8:-0.956138 9:-0.947658 10:-0.990544 11:0.599888 
8192 1:-0.941101 2:-0.951515 3:-0.933884 4:-0.978648 5:-0.891304 6:-0.95082 7:-0.835852 8:-0.947888 9:-0.942848 10:-0.947991 11:-0.399972 
8192 1:-0.84379 2:-0.878788 3:-0.801653 4:-0.879004 5:-0.880435 6:-0.819672 7:-0.868161 8:-0.928964 9:-0.941578 10:-0.867612 11:0.0667787 
8192 1:-0.933419 2:-0.890909 3:-0.900826 4:-0.928826 5:-0.891304 6:-0.95082 7:-0.842835 8:-0.932629 9:-0.929486 10:-0.947991 11:0.825003 
769.7407244583769 1:-0.403329 2:-0.212121 3:-0.603306 4:-0.402135 5:-0.282609 6:-0.631148 7:-0.811638 8:-0.944618 9:-0.909278 10:-0.498818 11:0.445051 
2647.445243745933 1:-0.925736 2:-0.890909 3:-0.966942 4:-0.957295 5:-0.902174 6:-0.934426 7:-0.802606 8:-0.945144 9:-0.895048 10:-0.943262 11:0.0118998 
8192 1:-0.751601 2:-0.648485 3:-0.818182 4:-0.75089 5:-0.673913 6:-0.745902 7:-0.847351 8:-0.955931 9:-0.940109 10:-0.735225 11:0.0359793 
8192 1:-0.989757 2:-0.975758 3:-0.950413 4:-1 5:-0.978261 6:-0.967213 7:-0.867466 8:-0.956646 9:-0.970873 10:-0.995272 11:0.533249 
1997.05195472757 1:-0.416133 2:-0.515152 3:-0.272727 4:-0.437722 5:-0.532609 6:-0.5 7:-0.812159 8:-0.937909 9:-0.924276 10:-0.531915 11:0.461571 
8192 1:-0.956466 2:-0.975758 3:-0.867769 4:-0.964413 5:-0.967391 6:-0.92623 7:-0.846517 8:-0.938285 9:-0.950797 10:-0.966903 11:0.533249 
8192 1:-0.956466 2:-0.975758 3:-0.867769 4:-0.964413 5:-0.967391 6:-0.92623 7:-0.846517 8:-0.938285 9:-0.950797 10:-0.966903 11:0.533249 
483.7563724053116 1:-0.90781 2:-0.939394 3:-0.900826 4:-0.957295 5:-0.891304 6:-0.934426 7:-0.701199 8:-0.936368 9:-0.875808 10:-0.938534 11:-0.0888982 
3360.896227150065 1:-0.948784 2:-0.90303 3:-0.983471 4:-0.97153 5:-0.913043 6:-0.967213 7:-0.631371 8:-0.932986 9:-0.739791 10:-0.966903 11:0.300014 
8192 1:-0.941101 2:-0.915152 3:-0.966942 4:-0.97153 5:-0.923913 6:-0.95082 7:-0.857773 8:-0.942965 9:-0.939173 10:-0.962175 11:0.138457 
8192 1:-0.959027 2:-0.963636 3:-0.950413 4:-0.992883 5:-0.945652 6:-0.95082 7:-0.889248 8:-0.953206 9:-0.973244 10:-0.971631 11:-0.272575 
8192 1:-0.869398 2:-0.939394 3:-0.801653 4:-0.914591 5:-0.902174 6:-0.901639 7:-0.891437 8:-0.927273 9:-0.946121 10:-0.92435 11:0.466611 
3048.235615795844 1:-0.800256 2:-0.69697 3:-0.735537 4:-0.743772 5:-0.728261 6:-0.860656 7:-0.785374 8:-0.947306 9:-0.905704 10:-0.825059 11:0.933361 
4860.045397563063 1:-0.751601 2:-0.757576 3:-0.669421 4:-0.75089 5:-0.75 6:-0.713115 7:-0.804933 8:-0.935598 9:-0.917061 10:-0.749409 11:0.131177 
8192 1:-0.516005 2:-0.442424 3:-0.652893 4:-0.558719 5:-0.413043 6:-0.647541 7:-0.819663 8:-0.942965 9:-0.917261 10:-0.565012 11:0.133977 
8192 1:-0.457106 2:-0.575758 3:-0.256198 4:-0.466192 5:-0.586957 6:-0.401639 7:-0.835053 8:-0.946648 9:-0.945353 10:-0.498818 11:0.217976 
8192 1:-0.984635 2:-0.963636 3:-0.966942 4:-1 5:-0.967391 6:-0.97541 7:-0.789057 8:-0.92996 9:-0.896585 10:-0.995272 11:0.533249 
8192 1:-0.915493 2:-0.890909 3:-0.966942 4:-0.957295 5:-0.858696 6:-0.934426 7:-0.829807 8:-0.951835 9:-0.91863 10:-0.92435 11:-0.333333 
8192 1:-0.976953 2:-0.963636 3:-0.900826 4:-0.97153 5:-0.956522 6:-0.95082 7:-0.842487 8:-0.933286 9:-0.938539 10:-0.976359 11:0.720006 
7976.753420079102 1:-0.0704225 2:0.0787879 3:-0.123967 4:-0.024911 5:0.0326087 6:-0.221311 7:-0.822164 8:-0.942645 9:-0.922873 10:-0.125296 11:0.292734 
8192 1:-0.982074 2:-0.975758 3:-0.950413 4:-1 5:-0.956522 6:-0.967213 7:-0.772104 8:-0.923702 9:-0.899056 10:-0.985816 11:-0.049979 
8192 1:-0.902689 2:-0.927273 3:-0.85124 4:-0.928826 5:-0.902174 6:-0.893443 7:-0.824006 8:-0.931407 9:-0.927248 10:-0.919622 11:0.109058 
8192 1:-0.692702 2:-0.721212 3:-0.570248 4:-0.686833 5:-0.73913 6:-0.737705 7:-0.722842 8:-0.938849 9:-0.885328 10:-0.758865 11:0.650007 
8192 1:-0.884763 2:-0.890909 3:-0.933884 4:-0.94306 5:-0.847826 6:-0.901639 7:-0.891575 8:-0.945614 9:-0.966129 10:-0.900709 11:-0.399972 
1411.000595142606 1:-0.93854 2:-0.939394 3:-0.966942 4:-0.985765 5:-0.934783 6:-0.959016 7:-0.754073 8:-0.93665 9:-0.86699 10:-0.971631 11:-0.0180596 
8192 1:-0.971831 2:-0.951515 3:-0.933884 4:-0.978648 5:-0.934783 6:-0.967213 7:-0.822755 8:-0.92451 9:-0.915791 10:-0.976359 11:0.440011 
8192 1:-0.641485 2:-0.672727 3:-0.570248 4:-0.658363 5:-0.706522 6:-0.713115 7:-0.739865 8:-0.930825 9:-0.880317 10:-0.730496 11:0.593448 
8192 1:-0.925736 2:-0.866667 3:-0.933884 4:-0.928826 5:-0.858696 6:-0.92623 7:-0.833941 8:-0.929753 9:-0.917695 10:-0.919622 11:0.109058 
8192 1:-0.982074 2:-0.939394 3:-0.983471 4:-0.992883 5:-0.945652 6:-0.991803 7:-0.75383 8:-0.953808 9:-0.857136 10:-0.995272 11:1 
4315.163320845181 1:-0.398207 2:-0.624242 3:-0.0743802 4:-0.41637 5:-0.663043 6:-0.401639 7:-0.7605 8:-0.945896 9:-0.924109 10:-0.531915 11:0.542209 
2600.449204831658 1:-0.710627 2:-0.69697 3:-0.636364 4:-0.701068 5:-0.706522 6:-0.795082 7:-0.769081 8:-0.924285 9:-0.886998 10:-0.777778 11:0.730645 
8192 1:-0.984635 2:-0.951515 3:-0.950413 4:-0.985765 5:-0.956522 6:-0.967213 7:-0.797603 8:-0.941499 9:-0.912317 10:-0.985816 11:0.650007 
8192 1:-0.93598 2:-0.963636 3:-0.900826 4:-0.97153 5:-0.956522 6:-0.901639 7:-0.878548 8:-0.951759 9:-0.971975 10:-0.947991 11:-0.224976 
8192 1:-0.920615 2:-0.878788 3:-0.917355 4:-0.928826 5:-0.880435 6:-0.901639 7:-0.818829 8:-0.914325 9:-0.901161 10:-0.914894 11:0.0261795 
8192 1:-0.974392 2:-0.987879 3:-0.917355 4:-0.992883 5:-0.98913 6:-0.95082 7:-0.848636 8:-0.94428 9:-0.961286 10:-0.990544 11:0.599888 
8192 1:-0.96927 2:-0.915152 3:-0.966942 4:-0.97153 5:-0.923913 6:-0.97541 7:-0.815112 8:-0.930242 9:-0.902263 10:-0.976359 11:0.720006 
3981.816312350128 1:-0.661972 2:-0.563636 3:-0.867769 4:-0.72242 5:-0.586957 6:-0.836066 7:-0.83481 8:-0.948771 9:-0.92157 10:-0.749409 11:0.324094 
8192 1:-0.961588 2:-0.975758 3:-0.917355 4:-0.985765 5:-0.956522 6:-0.95082 7:-0.778079 8:-0.946554 9:-0.93924 10:-0.976359 11:0.160017 
8192 1:-0.746479 2:-0.733333 3:-0.85124 4:-0.814947 5:-0.695652 6:-0.836066 7:-0.841584 8:-0.936368 9:-0.927148 10:-0.79669 11:0.00825983 
8192 1:-0.951344 2:-0.951515 3:-0.966942 4:-0.992883 5:-0.956522 6:-0.95082 7:-0.783255 8:-0.954127 9:-0.901962 10:-0.976359 11:-0.119978 
5307.189099707538 1:-0.772087 2:-0.721212 3:-0.504132 4:-0.658363 5:-0.75 6:-0.704918 7:-0.700643 8:-0.933907 9:-0.876676 10:-0.744681 11:0.715246 
8192 1:-0.871959 2:-0.915152 3:-0.884298 4:-0.935943 5:-0.902174 6:-0.868852 7:-0.874066 8:-0.9309 9:-0.946121 10:-0.905437 11:-0.231975 
8192 1:-0.725992 2:-0.466667 3:-0.834711 4:-0.651246 5:-0.48913 6:-0.803279 7:-0.795345 8:-0.91517 9:-0.879816 10:-0.687943 11:0.329693 
3625.351054083036 1:-0.956466 2:-0.915152 3:-0.917355 4:-0.950178 5:-0.923913 6:-0.959016 7:-0.449019 8:-0.887226 9:-0.675524 10:-0.966903 11:1 
8192 1:-0.964149 2:-0.951515 3:-0.933884 4:-0.978648 5:-0.956522 6:-0.942623 7:-0.889491 8:-0.932854 9:-0.955273 10:-0.971631 11:0.236455 
8192 1:-0.966709 2:-0.939394 3:-0.900826 4:-0.957295 5:-0.934783 6:-0.95082 7:-0.604134 8:-0.876552 9:-0.775365 10:-0.966903 11:0.766765 
6038.941332625009 1:-0.349552 2:-0.454545 3:0.00826446 4:-0.281139 5:-0.51087 6:-0.360656 7:-0.757895 8:-0.937909 9:-0.905737 10:-0.44208 11:0.613048 
8192 1:-0.772087 2:-0.757576 3:-0.834711 4:-0.822064 5:-0.75 6:-0.778689 7:-0.846587 8:-0.942232 9:-0.935499 10:-0.787234 11:-0.119978 
8192 1:-0.984635 2:-0.975758 3:-0.933884 4:-0.992883 5:-0.978261 6:-0.959016 7:-0.85482 8:-0.941555 9:-0.952301 10:-0.990544 11:0.599888 
8192 1:-0.979513 2:-0.963636 3:-0.917355 4:-0.978648 5:-0.967391 6:-0.959016 7:-0.844607 8:-0.944787 9:-0.950697 10:-0.985816 11:1 
8192 1:-0.96927 2:-0.951515 3:-0.933884 4:-0.978648 5:-0.945652 6:-0.959016 7:-0.824805 8:-0.946385 9:-0.9362 10:-0.976359 11:0.440011 
8192 1:-0.971831 2:-0.927273 3:-0.966942 4:-0.978648 5:-0.934783 6:-0.983607 7:-0.789752 8:-0.948941 9:-0.893779 10:-0.985816 11:1 
8192 1:-0.96927 2:-0.963636 3:-0.966942 4:-1 5:-0.956522 6:-0.967213 7:-0.911204 8:-0.957303 9:-0.986505 10:-0.985816 11:-0.049979 
8192 1:-0.96927 2:-0.975758 3:-0.950413 4:-1 5:-0.978261 6:-0.95082 7:-0.860031 8:-0.937026 9:-0.94709 10:-0.985816 11:-0.049979 
8192 1:-0.836108 2:-0.818182 3:-0.818182 4:-0.850534 5:-0.771739 6:-0.852459 7:-0.834601 8:-0.924397 9:-0.919466 10:-0.839243 11:0.0667787 
8192 1:-0.966709 2:-0.987879 3:-0.933884 4:-1 5:-0.978261 6:-0.959016 7:-0.850651 8:-0.951515 9:-0.970405 10:-0.990544 11:0.200056 
4319.552085789697 1:-0.439181 2:-0.272727 3:-0.355372 4:-0.330961 5:-0.326087 6:-0.52459 7:-0.796456 8:-0.94428 9:-0.910447 10:-0.456265 11:0.51001 
8192 1:-0.918054 2:-0.915152 3:-0.85124 4:-0.921708 5:-0.891304 6:-0.909836 7:-0.856071 8:-0.945464 9:-0.953002 10:-0.92435 11:0.333333 
7728.048252438225 1:-0.615877 2:-0.721212 3:-0.504132 4:-0.658363 5:-0.728261 6:-0.54918 7:-0.789092 8:-0.928701 9:-0.908342 10:-0.64539 11:0.0550189 
8192 1:-0.946223 2:-0.927273 3:-0.950413 4:-0.97153 5:-0.923913 6:-0.942623 7:-0.89769 8:-0.928663 9:-0.960217 10:-0.957447 11:0.000139997 
8192 1:-0.96927 2:-0.963636 3:-0.966942 4:-1 5:-0.956522 6:-0.959016 7:-0.862289 8:-0.931088 9:-0.939641 10:-0.981087 11:-0.244295 
8192 1:-0.90781 2:-0.927273 3:-0.950413 4:-0.97153 5:-0.923913 6:-0.909836 7:-0.837381 8:-0.947343 9:-0.93266 10:-0.938534 11:-0.399972 
8192 1:-0.871959 2:-0.866667 3:-0.933884 4:-0.928826 5:-0.858696 6:-0.877049 7:-0.879764 8:-0.948433 9:-0.958848 10:-0.891253 11:-0.300014 
8192 1:-0.943662 2:-0.878788 3:-0.933884 4:-0.935943 5:-0.880435 6:-0.942623 7:-0.892513 8:-0.939206 9:-0.96339 10:-0.938534 11:0.377852 
8192 1:-0.871959 2:-0.866667 3:-0.933884 4:-0.928826 5:-0.858696 6:-0.877049 7:-0.879764 8:-0.948433 9:-0.958848 10:-0.891253 11:-0.300014 
8192 1:-0.948784 2:-0.927273 3:-0.933884 4:-0.964413 5:-0.913043 6:-0.942623 7:-0.826229 8:-0.946047 9:-0.929453 10:-0.952719 11:0.0667787 
8192 1:-0.987196 2:-0.975758 3:-0.950413 4:-1 5:-0.967391 6:-0.97541 7:-0.841098 8:-0.946892 9:-0.95033 10:-0.995272 11:0.533249 
3325.827940724096 1:-0.564661 2:-0.430303 3:-0.652893 4:-0.551601 5:-0.445652 6:-0.598361 7:-0.815077 8:-0.933399 9:-0.90861 10:-0.550827 11:0.104018 
8192 1:-0.882202 2:-0.915152 3:-0.884298 4:-0.935943 5:-0.858696 6:-0.901639 7:-0.856453 8:-0.936293 9:-0.942447 10:-0.905437 11:-0.231975 
8192 1:-0.587708 2:-0.563636 3:-0.818182 4:-0.701068 5:-0.576087 6:-0.663934 7:-0.858329 8:-0.948696 9:-0.942413 10:-0.64539 11:-0.154977 
411.8082241126849 1:-0.254802 2:-0.333333 3:-0.570248 4:-0.459075 5:-0.315217 6:-0.598361 7:-0.810353 8:-0.93152 9:-0.905169 10:-0.49409 11:0.224976 
8192 1:-0.923175 2:-0.878788 3:-0.950413 4:-0.94306 5:-0.880435 6:-0.909836 7:-0.830884 8:-0.938135 9:-0.917628 10:-0.919622 11:-0.145457 
8192 1:-0.815621 2:-0.69697 3:-0.68595 4:-0.72242 5:-0.728261 6:-0.795082 7:-0.721278 8:-0.939676 9:-0.869495 10:-0.787234 11:0.664007 
8192 1:-0.974392 2:-0.975758 3:-0.950413 4:-1 5:-0.967391 6:-0.97541 7:-0.795657 8:-0.929359 9:-0.914154 10:-0.995272 11:0.533249 
8192 1:-0.979513 2:-0.975758 3:-0.933884 4:-0.992883 5:-0.978261 6:-0.95082 7:-0.798263 8:-0.928381 9:-0.918564 10:-0.985816 11:0.300014 
8192 1:-0.930858 2:-0.890909 3:-0.983471 4:-0.964413 5:-0.880435 6:-0.934426 7:-0.866806 8:-0.917782 9:-0.938205 10:-0.933806 11:-0.326333 
8192 1:-0.756722 2:-0.709091 3:-0.867769 4:-0.807829 5:-0.706522 6:-0.852459 7:-0.85284 8:-0.93229 9:-0.931858 10:-0.810875 11:0.191096 
8192 1:-0.830986 2:-0.806061 3:-0.884298 4:-0.871886 5:-0.815217 6:-0.852459 7:-0.876394 8:-0.946479 9:-0.956443 10:-0.858156 11:0.0398992 
1847.352235864353 1:0.0140845 2:0.0545455 3:0.0909091 4:0.0533808 5:-0.0108696 7:-0.812368 8:-0.937383 9:-0.917495 10:-0.0165485 11:0.211256 
8192 1:-0.892446 2:-0.951515 3:-0.884298 4:-0.957295 5:-0.858696 6:-0.92623 7:-0.853465 8:-0.950049 9:-0.960317 10:-0.919622 11:-0.399972 
6239.844009631649 1:-0.93854 2:-0.866667 3:-0.983471 4:-0.950178 5:-0.880435 6:-0.97541 7:-0.817057 8:-0.954071 9:-0.900025 10:-0.957447 11:0.599888 
8192 1:-0.987196 2:-0.975758 3:-0.950413 4:-1 5:-0.978261 6:-0.97541 7:-0.835748 8:-0.954992 9:-0.95691 10:-1 11:1 
8103.474336922714 1:-0.393086 2:-0.236364 3:-0.140496 4:-0.217082 5:-0.293478 6:-0.442623 7:-0.779191 8:-0.934846 9:-0.89939 10:-0.394799 11:0.621168 
8192 1:-0.93854 2:-0.963636 3:-0.933884 4:-0.985765 5:-0.923913 6:-0.959016 7:-0.866389 8:-0.947569 9:-0.959749 10:-0.966903 11:-0.166737 
8192 1:-0.59283 2:-0.69697 3:-0.338843 4:-0.572954 5:-0.728261 6:-0.532787 7:-0.815703 8:-0.945746 9:-0.940576 10:-0.635934 11:0.419572 
8192 1:-0.961588 2:-0.975758 3:-0.933884 4:-0.992883 5:-0.978261 6:-0.934426 7:-0.892444 8:-0.956176 9:-0.981662 10:-0.976359 11:-0.119978 
8192 1:-0.943662 2:-0.951515 3:-0.884298 4:-0.957295 5:-0.956522 6:-0.909836 7:-0.884245 8:-0.94614 9:-0.966697 10:-0.952719 11:0.253255 
8192 1:-0.979513 2:-0.951515 3:-0.983471 4:-1 5:-0.956522 6:-0.97541 7:-0.803161 8:-0.932854 9:-0.89281 10:-0.990544 11:0.200056 
8192 1:-0.976953 2:-0.951515 3:-0.950413 4:-0.985765 5:-0.956522 6:-0.959016 7:-0.814487 8:-0.922969 9:-0.907474 10:-0.981087 11:0.377852 
8192 1:-0.93854 2:-0.939394 3:-0.884298 4:-0.950178 5:-0.945652 6:-0.92623 7:-0.866597 8:-0.904459 9:-0.915557 10:-0.957447 11:0.599888 
8192 1:-0.90525 2:-0.939394 3:-0.917355 4:-0.964413 5:-0.880435 6:-0.92623 7:-0.867431 8:-0.955499 9:-0.964793 10:-0.929078 11:-0.399972 
8192 1:-0.928297 2:-0.890909 3:-0.884298 4:-0.921708 5:-0.891304 6:-0.918033 7:-0.856835 8:-0.939582 9:-0.943649 10:-0.929078 11:0.440011 
8192 1:-0.96927 2:-0.975758 3:-0.950413 4:-1 5:-0.978261 6:-0.942623 7:-0.804204 8:-0.940146 9:-0.928952 10:-0.981087 11:-0.244295 
3846.003605053507 1:-0.403329 2:-0.224242 3:-0.735537 4:-0.466192 5:-0.217391 6:-0.614754 7:-0.873788 8:-0.950707 9:-0.95347 10:-0.460993 11:0.0824584 
8192 1:-0.982074 2:-0.987879 3:-0.917355 4:-0.992883 5:-0.967391 6:-0.959016 7:-0.764669 8:-0.936068 9:-0.935666 10:-0.985816 11:0.300014 
8192 1:-0.976953 2:-0.951515 3:-0.966942 4:-0.992883 5:-0.956522 6:-0.959016 7:-0.769185 8:-0.945708 9:-0.887933 10:-0.981087 11:0.0667787 
8192 1:-0.28041 2:-0.333333 3:-0.355372 4:-0.366548 5:-0.369565 6:-0.491803 7:-0.795518 8:-0.934827 9:-0.904969 10:-0.456265 11:0.393252 
8192 1:-0.953905 2:-0.975758 3:-0.884298 4:-0.97153 5:-0.967391 6:-0.934426 7:-0.852805 8:-0.931294 9:-0.941645 10:-0.971631 11:0.49097 
8192 1:-0.93854 2:-0.939394 3:-0.983471 4:-0.992883 5:-0.902174 6:-0.942623 7:-0.916762 8:-0.956458 9:-0.988476 10:-0.947991 11:-0.749965 
8192 1:-0.971831 2:-0.975758 3:-0.950413 4:-1 5:-0.956522 6:-0.959016 7:-0.92107 8:-0.956138 9:-0.990948 10:-0.981087 11:-0.244295 
1706.082987251373 1:0.270166 2:0.00606061 3:0.0743802 4:0.0177936 5:-0.0434783 6:0.0819672 7:-0.83217 8:-0.946216 9:-0.935599 10:0.0165485 11:0.0835783 
8192 1:-0.976953 2:-0.987879 3:-0.900826 4:-0.985765 5:-0.978261 6:-0.95082 7:-0.813028 8:-0.930374 9:-0.936301 10:-0.985816 11:0.650007 
8192 1:-0.974392 2:-0.939394 3:-0.950413 4:-0.978648 5:-0.945652 6:-0.959016 7:-0.839569 8:-0.903895 9:-0.907608 10:-0.976359 11:0.440011 
3267.223519038578 1:-0.792574 2:-0.890909 3:-0.487603 4:-0.75089 5:-0.902174 6:-0.713115 7:-0.614695 8:-0.907597 9:-0.857436 10:-0.815603 11:0.745485 
8192 1:-0.597951 2:-0.6 3:-0.801653 4:-0.715302 5:-0.554348 6:-0.729508 7:-0.866423 8:-0.949091 9:-0.949762 10:-0.673759 11:-0.0972981 
8192 1:-0.495519 2:-0.563636 3:-0.256198 4:-0.459075 5:-0.554348 6:-0.467213 7:-0.835609 8:-0.94133 9:-0.939875 10:-0.522459 11:0.339773 
8192 1:-0.836108 2:-0.818182 3:-0.884298 4:-0.879004 5:-0.75 6:-0.852459 7:-0.866423 8:-0.941799 9:-0.947591 10:-0.829787 11:-0.297494 
8192 1:-0.946223 2:-0.987879 3:-0.900826 4:-0.985765 5:-0.978261 6:-0.942623 7:-0.849331 8:-0.92404 9:-0.931658 10:-0.981087 11:0.377852 
8192 1:-0.951344 2:-0.939394 3:-0.950413 4:-0.978648 5:-0.923913 6:-0.959016 7:-0.837068 8:-0.910284 9:-0.91038 10:-0.966903 11:0.0667787 
8192 1:-0.928297 2:-0.951515 3:-0.85124 4:-0.94306 5:-0.945652 6:-0.901639 7:-0.858607 8:-0.926483 9:-0.935766 10:-0.943262 11:0.341173 
8192 1:-0.964149 2:-0.963636 3:-0.950413 4:-0.992883 5:-0.967391 6:-0.942623 7:-0.640994 8:-0.95253 9:-0.853294 10:-0.976359 11:-0.119978 
1941.308862979028 1:-0.0192061 2:0.151515 3:-0.206612 4:-0.0177936 5:0.0326087 6:-0.319672 7:-0.83818 8:-0.944844 9:-0.931791 10:-0.182033 11:0.449531 
8192 1:-0.871959 2:-0.793939 3:-0.900826 4:-0.871886 5:-0.771739 6:-0.860656 7:-0.844224 8:-0.935617 9:-0.927516 10:-0.843972 11:-0.105138 
3404.827201892794 1:-0.925736 2:-0.915152 3:-0.85124 4:-0.921708 5:-0.880435 6:-0.918033 7:-0.569915 8:-0.921165 9:-0.808334 10:-0.92435 11:0.333333 
8192 1:-0.918054 2:-0.939394 3:-0.884298 4:-0.950178 5:-0.913043 6:-0.901639 7:-0.878722 8:-0.927893 9:-0.944718 10:-0.929078 11:-0.119978 
8192 1:-0.577465 2:-0.563636 3:-0.867769 4:-0.72242 5:-0.51087 6:-0.786885 7:-0.894389 8:-0.956288 9:-0.970873 10:-0.687943 11:-0.0648187 
8192 1:-0.971831 2:-0.951515 3:-0.983471 4:-1 5:-0.956522 6:-0.97541 7:-0.869515 8:-0.945295 9:-0.948259 10:-0.990544 11:0.200056 
8192 1:-0.976953 2:-0.939394 3:-0.966942 4:-0.985765 5:-0.945652 6:-0.97541 7:-0.881883 8:-0.930561 9:-0.951699 10:-0.985816 11:0.650007 
8192 1:-0.915493 2:-0.806061 3:-0.950413 4:-0.900356 5:-0.804348 6:-0.967213 7:-0.84009 8:-0.931144 9:-0.919265 10:-0.919622 11:0.618088 
8192 1:-0.825864 2:-0.866667 3:-0.884298 4:-0.907473 5:-0.847826 6:-0.852459 7:-0.83415 8:-0.941856 9:-0.930455 10:-0.87234 11:-0.224976 
4871.321787571721 1:-0.400768 2:-0.587879 3:-0.272727 4:-0.480427 5:-0.630435 6:-0.327869 7:-0.833385 8:-0.941705 9:-0.939808 10:-0.475177 11:0.0827383 
7921.106979495232 1:-0.976953 2:-0.915152 3:-0.950413 4:-0.964413 5:-0.923913 6:-0.967213 7:-0.789543 8:-0.952135 9:-0.900927 10:-0.971631 11:0.745485 
8192 1:-0.756722 2:-0.69697 3:-0.636364 4:-0.701068 5:-0.706522 6:-0.778689 7:-0.739726 8:-0.939432 9:-0.884559 10:-0.768322 11:0.637127 
8192 1:-0.877081 2:-0.830303 3:-0.966942 4:-0.921708 5:-0.847826 6:-0.877049 7:-0.887302 8:-0.944938 9:-0.961019 10:-0.886525 11:-0.255215 
8192 1:-0.982074 2:-0.963636 3:-0.950413 4:-0.992883 5:-0.967391 6:-0.967213 7:-0.804099 8:-0.934489 9:-0.915691 10:-0.990544 11:0.599888 
8192 1:-0.915493 2:-0.915152 3:-0.933884 4:-0.957295 5:-0.913043 6:-0.909836 7:-0.779086 8:-0.93417 9:-0.890338 10:-0.933806 11:-0.179056 
6961.626865550215 1:-0.295775 2:-0.515152 3:-0.404959 4:-0.494662 5:-0.5 6:-0.352459 7:-0.834358 8:-0.939356 9:-0.933194 10:-0.432624 11:-0.097578 
8192 1:-0.971831 2:-0.963636 3:-0.933884 4:-0.985765 5:-0.967391 6:-0.959016 7:-0.853535 8:-0.950895 9:-0.957846 10:-0.985816 11:0.650007 
8192 1:-0.585147 2:-0.551515 3:-0.652893 4:-0.622776 5:-0.543478 6:-0.57377 7:-0.848741 8:-0.93992 9:-0.936635 10:-0.579196 11:-0.0723786 
8192 1:-0.882202 2:-0.866667 3:-0.884298 4:-0.907473 5:-0.847826 6:-0.893443 7:-0.83078 8:-0.94024 9:-0.927349 10:-0.895981 11:0.0667787 
8192 1:-0.989757 2:-0.975758 3:-0.950413 4:-1 5:-0.978261 6:-0.97541 7:-0.83012 8:-0.930731 9:-0.928852 10:-1 11:1 
8192 1:-0.93854 2:-0.975758 3:-0.933884 4:-0.992883 5:-0.978261 6:-0.934426 7:-0.775056 8:-0.94958 9:-0.936234 10:-0.976359 11:-0.119978 
8192 1:-0.825864 2:-0.842424 3:-0.85124 4:-0.879004 5:-0.793478 6:-0.868852 7:-0.801945 8:-0.914137 9:-0.893111 10:-0.858156 11:-0.0398992 
6527.973014882889 1:-0.667093 2:-0.648485 3:-0.53719 4:-0.629893 5:-0.684783 6:-0.688525 7:-0.736286 8:-0.919361 9:-0.86866 10:-0.706856 11:0.581968 
8192 1:-0.925736 2:-0.927273 3:-0.900826 4:-0.950178 5:-0.923913 6:-0.92623 7:-0.893035 8:-0.950406 9:-0.972576 10:-0.947991 11:0.300014 
8192 1:-0.966709 2:-0.963636 3:-0.950413 4:-0.992883 5:-0.967391 6:-0.967213 7:-0.879937 8:-0.932723 9:-0.950564 10:-0.990544 11:0.599888 
527.8876019997679 1:-0.490397 2:-0.612121 3:-0.504132 4:-0.594306 5:-0.630435 6:-0.614754 7:-0.844363 8:-0.933493 9:-0.933662 10:-0.640662 11:0.343133 
8192 1:-0.976953 2:-0.987879 3:-0.933884 4:-1 5:-0.98913 6:-0.959016 7:-0.821817 8:-0.930918 9:-0.935599 10:-0.995272 11:0.533249 
8192 1:-0.971831 2:-0.915152 3:-0.966942 4:-0.97153 5:-0.913043 6:-0.967213 7:-0.879729 8:-0.945107 9:-0.956443 10:-0.966903 11:0.300014 
8192 1:-0.889885 2:-0.90303 3:-0.867769 4:-0.921708 5:-0.891304 6:-0.893443 7:-0.850929 8:-0.938003 9:-0.941311 10:-0.914894 11:0.147977 
8192 1:-0.928297 2:-0.915152 3:-0.933884 4:-0.957295 5:-0.902174 6:-0.909836 7:-0.840681 8:-0.936763 9:-0.92972 10:-0.929078 11:-0.259975 
8192 1:-0.976953 2:-0.963636 3:-0.933884 4:-0.985765 5:-0.967391 6:-0.959016 7:-0.823172 8:-0.912182 9:-0.906004 10:-0.985816 11:0.650007 
8192 1:-0.976953 2:-0.951515 3:-0.966942 4:-0.992883 5:-0.956522 6:-0.97541 7:-0.862567 8:-0.928682 9:-0.937737 10:-0.990544 11:0.599888 
8192 1:-0.710627 2:-0.721212 3:-0.834711 4:-0.800712 5:-0.73913 6:-0.762295 7:-0.863401 8:-0.950669 9:-0.949962 10:-0.77305 11:-0.0566989 
4030.225580065073 1:-0.728553 2:-0.672727 3:-0.785124 4:-0.75089 5:-0.684783 6:-0.770492 7:-0.85357 8:-0.942777 9:-0.940008 10:-0.754137 11:0.165057 
8192 1:-0.951344 2:-0.963636 3:-0.917355 4:-0.978648 5:-0.967391 6:-0.918033 7:-0.832239 8:-0.930392 9:-0.930255 10:-0.962175 11:-0.0768585 
8192 1:-0.979513 2:-0.915152 3:-0.983471 4:-0.978648 5:-0.923913 6:-0.97541 7:-0.804655 8:-0.943923 9:-0.891273 10:-0.976359 11:0.440011 
8192 1:-0.941101 2:-0.927273 3:-0.884298 4:-0.94306 5:-0.923913 6:-0.934426 7:-0.849331 8:-0.928851 9:-0.933127 10:-0.952719 11:0.626767 
8192 1:-0.959027 2:-0.963636 3:-0.966942 4:-1 5:-0.967391 6:-0.967213 7:-0.836755 8:-0.904816 9:-0.906238 10:-0.990544 11:0.200056 
8192 1:-0.78233 2:-0.745455 3:-0.570248 4:-0.701068 5:-0.771739 6:-0.745902 7:-0.684766 8:-0.928626 9:-0.862447 10:-0.777778 11:0.730645 
8192 1:-0.930858 2:-0.951515 3:-0.900826 4:-0.964413 5:-0.945652 6:-0.934426 7:-0.841237 8:-0.932065 9:-0.934564 10:-0.962175 11:0.353773 
8192 1:-0.974392 2:-0.963636 3:-0.950413 4:-0.992883 5:-0.967391 6:-0.95082 7:-0.846413 8:-0.946328 9:-0.946555 10:-0.981087 11:0.0667787 
8192 1:-0.953905 2:-0.915152 3:-0.983471 4:-0.978648 5:-0.923913 6:-0.959016 7:-0.811569 8:-0.957698 9:-0.900125 10:-0.966903 11:0.0667787 
8192 1:-0.869398 2:-0.927273 3:-0.917355 4:-0.957295 5:-0.836957 6:-0.893443 7:-0.894459 8:-0.94832 9:-0.970973 10:-0.891253 11:-0.699846 
8192 1:-0.951344 2:-0.963636 3:-0.867769 4:-0.957295 5:-0.967391 6:-0.92623 7:-0.897412 8:-0.899948 9:-0.911816 10:-0.966903 11:0.766765 
8192 1:-0.925736 2:-0.951515 3:-0.884298 4:-0.957295 5:-0.934783 6:-0.918033 7:-0.827862 8:-0.938436 9:-0.938271 10:-0.947991 11:0.125017 
8192 1:-0.941101 2:-0.987879 3:-0.933884 4:-1 5:-0.98913 6:-0.934426 7:-0.74108 8:-0.949204 9:-0.946054 10:-0.981087 11:-0.244295 
8192 1:-0.784891 2:-0.69697 3:-0.884298 4:-0.807829 5:-0.684783 6:-0.860656 7:-0.853048 8:-0.940428 9:-0.93453 10:-0.806147 11:0.147977 
8192 1:-0.761844 2:-0.806061 3:-0.834711 4:-0.850534 5:-0.771739 6:-0.803279 7:-0.855793 8:-0.937327 9:-0.939908 10:-0.810875 11:-0.182136 
11.81781023977233 1:0.620999 2:0.721212 3:-0.0909091 4:0.366548 5:0.76087 6:-0.057377 7:-0.853326 8:-0.941518 9:-0.937403 10:0.286052 11:0.191376 
8192 1:-0.974392 2:-0.987879 3:-0.933884 4:-1 5:-0.978261 6:-0.95082 7:-0.769429 8:-0.921278 9:-0.911783 10:-0.985816 11:-0.049979 
8192 1:-0.884763 2:-0.927273 3:-0.917355 4:-0.957295 5:-0.913043 6:-0.934426 7:-0.857808 8:-0.928419 9:-0.935666 10:-0.947991 11:0.125017 
8192 1:-0.979513 2:-0.951515 3:-0.983471 4:-1 5:-0.956522 6:-0.97541 7:-0.7251 8:-0.929772 9:-0.831649 10:-0.990544 11:0.200056 
8192 1:-0.78233 2:-0.757576 3:-0.818182 4:-0.814947 5:-0.695652 6:-0.827869 7:-0.851416 8:-0.93028 9:-0.931925 10:-0.791962 11:-0.0284194 
8192 1:-0.897567 2:-0.878788 3:-0.900826 4:-0.921708 5:-0.869565 6:-0.92623 7:-0.858885 8:-0.931031 9:-0.937303 10:-0.92435 11:0.333333 
8192 1:-0.830986 2:-0.866667 3:-0.867769 4:-0.900356 5:-0.836957 6:-0.877049 7:-0.897759 8:-0.948377 9:-0.972509 10:-0.881797 11:-0.0267395 
485.6520926199987 1:-0.480154 2:-0.466667 3:-0.371901 4:-0.451957 5:-0.467391 6:-0.532787 7:-0.831509 8:-0.941424 9:-0.932894 10:-0.522459 11:0.366093 
8192 1:-0.838668 2:-0.866667 3:-0.884298 4:-0.907473 5:-0.836957 6:-0.811475 7:-0.899774 8:-0.938774 9:-0.966864 10:-0.843972 11:-0.473611 
8192 1:-0.480154 2:-0.466667 3:-0.371901 4:-0.451957 5:-0.467391 6:-0.532787 7:-0.831509 8:-0.941424 9:-0.932894 10:-0.522459 11:0.366093 
8192 1:-0.910371 2:-0.854545 3:-0.900826 4:-0.907473 5:-0.858696 6:-0.918033 7:-0.86354 8:-0.93509 9:-0.942146 10:-0.914894 11:0.391292 
8192 1:-0.487836 2:-0.272727 3:-0.768595 4:-0.508897 5:-0.271739 6:-0.680328 7:-0.832864 8:-0.93043 9:-0.914388 10:-0.522459 11:0.154697 
8192 1:-0.948784 2:-0.927273 3:-0.917355 4:-0.957295 5:-0.923913 6:-0.934426 7:-0.845128 8:-0.933756 9:-0.933328 10:-0.952719 11:0.253255 
8192 1:-0.959027 2:-0.939394 3:-0.900826 4:-0.957295 5:-0.923913 6:-0.92623 7:-0.732326 8:-0.912821 9:-0.866555 10:-0.947991 11:0.125017 
8192 1:-0.956466 2:-0.963636 3:-0.933884 4:-0.985765 5:-0.956522 6:-0.95082 7:-0.799305 8:-0.918008 9:-0.902096 10:-0.976359 11:0.160017 
3531.296080256413 1:-0.961588 2:-0.927273 3:-0.966942 4:-0.978648 5:-0.934783 6:-0.97541 7:-0.814904 8:-0.890646 9:-0.885996 10:-0.981087 11:0.688926 
8192 1:-0.495519 2:-0.357576 3:-0.68595 4:-0.523132 5:-0.358696 6:-0.631148 7:-0.824249 8:-0.941724 9:-0.916359 10:-0.531915 11:0.138457 
8192 1:-0.900128 2:-0.927273 3:-0.900826 4:-0.950178 5:-0.913043 6:-0.885246 7:-0.873754 8:-0.936425 9:-0.950864 10:-0.919622 11:-0.272575 
8192 1:-0.971831 2:-0.963636 3:-0.950413 4:-0.992883 5:-0.967391 6:-0.967213 7:-0.820705 8:-0.929735 9:-0.919432 10:-0.990544 11:0.599888 
4066.637381289233 1:-0.31114 2:-0.309091 3:-0.256198 4:-0.309609 5:-0.369565 6:-0.42623 7:-0.787077 8:-0.935917 9:-0.903432 10:-0.41844 11:0.431331 
8192 1:-0.953905 2:-0.963636 3:-0.950413 4:-0.992883 5:-0.956522 6:-0.959016 7:-0.924058 8:-0.947869 9:-0.985236 10:-0.981087 11:0.0667787 
8192 1:-0.918054 2:-0.939394 3:-0.884298 4:-0.950178 5:-0.913043 6:-0.901639 7:-0.903248 8:-0.945802 9:-0.973111 10:-0.929078 11:-0.119978 
8192 1:-0.928297 2:-0.890909 3:-0.900826 4:-0.928826 5:-0.858696 6:-0.942623 7:-0.815459 8:-0.949373 9:-0.925612 10:-0.929078 11:0.300014 
8192 1:-0.90781 2:-0.927273 3:-0.933884 4:-0.964413 5:-0.902174 6:-0.909836 7:-0.901407 8:-0.934188 9:-0.964392 10:-0.929078 11:-0.399972 
8192 1:-0.943662 2:-0.915152 3:-0.933884 4:-0.957295 5:-0.923913 6:-0.918033 7:-0.871426 8:-0.950651 9:-0.957511 10:-0.943262 11:0.0118998 
5108.912976114359 1:-0.869398 2:-0.757576 3:-0.884298 4:-0.843416 5:-0.782609 6:-0.92623 7:-0.688935 8:-0.848983 9:-0.776935 10:-0.886525 11:0.806804 
8192 1:-0.646607 2:-0.648485 3:-0.68595 4:-0.69395 5:-0.663043 6:-0.622951 7:-0.833212 8:-0.941066 9:-0.92972 10:-0.659574 11:-0.0544589 
8192 1:-0.892446 2:-0.951515 3:-0.917355 4:-0.97153 5:-0.945652 6:-0.877049 7:-0.906375 8:-0.952304 9:-0.98096 10:-0.929078 11:-0.539969 
8192 1:-0.941101 2:-0.939394 3:-0.917355 4:-0.964413 5:-0.945652 6:-0.909836 7:-0.847247 8:-0.924097 9:-0.927182 10:-0.947991 11:-0.049979 
5115.404501126419 1:0.0115237 2:-0.10303 3:0.123967 4:-0.024911 5:-0.141304 6:-0.0163934 7:-0.8181 8:-0.94225 9:-0.927783 10:-0.0827423 11:0.198096 
8192 1:-0.68758 2:-0.672727 3:-0.586777 4:-0.66548 5:-0.706522 6:-0.721311 7:-0.738927 8:-0.934094 9:-0.88142 10:-0.735225 11:0.587008 
8192 1:-0.897567 2:-0.866667 3:-0.867769 4:-0.900356 5:-0.836957 6:-0.909836 7:-0.789821 8:-0.887526 9:-0.866889 10:-0.900709 11:0.246255 
8192 1:-0.761844 2:-0.624242 3:-0.834711 4:-0.743772 5:-0.608696 6:-0.893443 7:-0.828001 8:-0.955725 9:-0.923841 10:-0.791962 11:0.542769 
8192 1:-0.989757 2:-0.963636 3:-0.966942 4:-1 5:-0.967391 6:-0.983607 7:-0.316519 8:-0.921936 9:-0.618271 10:-1 11:1 
393.3608948135117 1:-0.667093 2:-0.660606 3:-0.53719 4:-0.637011 5:-0.695652 6:-0.663934 7:-0.81473 8:-0.944299 9:-0.929486 10:-0.6974 11:0.472491 
8192 1:-0.90525 2:-0.866667 3:-0.966942 4:-0.94306 5:-0.858696 6:-0.909836 7:-0.846066 8:-0.943622 9:-0.927415 10:-0.910165 11:-0.283214 
8192 1:-0.976953 2:-0.975758 3:-0.950413 4:-1 5:-0.978261 6:-0.959016 7:-0.892583 8:-0.947061 9:-0.970305 10:-0.990544 11:0.200056 
7859.600109203791 1:-0.690141 2:-0.587879 3:-0.752066 4:-0.686833 5:-0.586957 6:-0.729508 7:-0.812437 8:-0.942382 9:-0.911616 10:-0.687943 11:0.132297 
8192 1:-0.989757 2:-0.987879 3:-0.933884 4:-1 5:-0.98913 6:-0.967213 7:-0.845649 8:-0.942288 9:-0.956342 10:-1 11:1 
8192 1:-0.953905 2:-0.939394 3:-0.950413 4:-0.978648 5:-0.934783 6:-0.95082 7:-0.904082 8:-0.948508 9:-0.976117 10:-0.966903 11:0.0667787 
3176.73613807971 1:-0.357234 2:-0.333333 3:-0.190083 4:-0.295374 5:-0.391304 6:-0.442623 7:-0.788466 8:-0.935297 9:-0.906338 10:-0.437352 11:0.548369 
8192 1:-0.137004 2:-0.309091 3:-0.438017 4:-0.3879 5:-0.315217 6:-0.229508 7:-0.859441 8:-0.950839 9:-0.950764 10:-0.281324 11:-0.177096 
8192 1:-0.956466 2:-0.951515 3:-0.917355 4:-0.97153 5:-0.934783 6:-0.959016 7:-0.825986 8:-0.938661 9:-0.933161 10:-0.971631 11:0.49097 
8192 1:-0.961588 2:-0.987879 3:-0.933884 4:-1 5:-0.956522 6:-0.967213 7:-0.78124 8:-0.952417 9:-0.958347 10:-0.985816 11:-0.049979 
4225.6586411924 1:-0.290653 2:-0.2 3:-0.53719 4:-0.366548 5:-0.23913 6:-0.459016 7:-0.854681 8:-0.94864 9:-0.942781 10:-0.380615 11:0.135377 
8192 1:-0.582586 2:-0.551515 3:-0.801653 4:-0.686833 5:-0.532609 6:-0.672131 7:-0.864964 8:-0.938154 9:-0.943115 10:-0.631206 11:-0.146857 
8192 1:-0.976953 2:-1 3:-0.917355 4:-1 5:-0.98913 6:-0.92623 7:-1 8:-0.948828 9:-0.977119 10:-0.976359 11:-0.399972 
8192 1:0.00640205 2:0.0666667 3:-0.123967 4:-0.0320285 5:-0.0217391 6:-0.204918 7:-0.789369 8:-0.93556 9:-0.898622 10:-0.13948 11:0.311214 
8192 1:-0.895006 2:-0.866667 3:-0.900826 4:-0.914591 5:-0.869565 6:-0.92623 7:-0.870731 8:-0.930035 9:-0.943749 10:-0.92435 11:0.466611 
8192 1:-0.951344 2:-0.939394 3:-0.933884 4:-0.97153 5:-0.934783 6:-0.959016 7:-0.33177 8:-0.92872 9:-0.654814 10:-0.971631 11:0.49097 
1156.425551302 1:0.0550576 2:0.29697 3:-0.38843 4:-0.0106762 5:0.23913 6:-0.262295 7:-0.8609 8:-0.943923 9:-0.943081 10:-0.0591017 11:0.176536 
8192 1:-0.953905 2:-0.963636 3:-0.917355 4:-0.978648 5:-0.956522 6:-0.934426 7:-0.848845 8:-0.931802 9:-0.937804 10:-0.966903 11:0.0667787 
8192 1:-0.971831 2:-0.939394 3:-0.966942 4:-0.985765 5:-0.945652 6:-0.95082 7:-0.842626 8:-0.914137 9:-0.916392 10:-0.971631 11:-0.0180596 
8192 1:-0.897567 2:-0.890909 3:-0.884298 4:-0.921708 5:-0.902174 6:-0.868852 7:-0.858607 8:-0.950012 9:-0.952735 10:-0.905437 11:-0.00797984 
8192 1:-0.989757 2:-0.963636 3:-0.966942 4:-1 5:-0.967391 6:-0.97541 7:-0.580198 8:-0.905812 9:-0.758931 10:-0.995272 11:0.533249 
8192 1:-0.982074 2:-0.951515 3:-0.966942 4:-0.992883 5:-0.956522 6:-0.967213 7:-0.910787 8:-0.959634 9:-0.986973 10:-0.985816 11:0.300014 
8192 1:-0.96927 2:-0.951515 3:-0.933884 4:-0.978648 5:-0.923913 6:-0.95082 7:-0.834358 8:-0.937684 9:-0.933061 10:-0.962175 11:-0.0768585 
1831.760953902688 1:-0.915493 2:-0.927273 3:-0.85124 4:-0.928826 5:-0.891304 6:-0.893443 7:-0.73573 8:-0.918572 9:-0.879616 10:-0.914894 11:0.0261795 
8192 1:-0.861716 2:-0.878788 3:-0.801653 4:-0.879004 5:-0.847826 6:-0.868852 7:-0.888762 8:-0.943359 9:-0.964526 10:-0.881797 11:0.253255 
8192 1:-0.928297 2:-0.927273 3:-0.917355 4:-0.957295 5:-0.913043 6:-0.918033 7:-0.868056 8:-0.922706 9:-0.936434 10:-0.938534 11:-0.0888982 
8192 1:-0.925736 2:-0.939394 3:-0.867769 4:-0.94306 5:-0.902174 6:-0.909836 7:-0.755185 8:-0.927611 9:-0.898355 10:-0.929078 11:0.0200196 
8192 1:-0.68758 2:-0.672727 3:-0.553719 4:-0.651246 5:-0.706522 6:-0.704918 7:-0.741636 8:-0.933512 9:-0.88476 10:-0.725768 11:0.599888 
8192 1:-0.982074 2:-0.987879 3:-0.933884 4:-1 5:-0.98913 6:-0.959016 7:-0.849957 8:-0.932741 9:-0.943582 10:-0.995272 11:0.533249 
8192 1:-0.987196 2:-0.975758 3:-0.950413 4:-1 5:-0.978261 6:-0.967213 7:-0.795275 8:-0.949918 9:-0.935933 10:-0.995272 11:0.533249 
8192 1:-0.81306 2:-0.890909 3:-0.867769 4:-0.914591 5:-0.847826 6:-0.852459 7:-0.851416 8:-0.939037 9:-0.941445 10:-0.87234 11:-0.312614 
8192 1:-0.902689 2:-0.878788 3:-0.950413 4:-0.94306 5:-0.891304 6:-0.909836 7:-0.85152 8:-0.94708 9:-0.936568 10:-0.92435 11:-0.0667787 
8192 1:-0.790013 2:-0.757576 3:-0.917355 4:-0.857651 5:-0.771739 6:-0.852459 7:-0.868404 8:-0.947851 9:-0.948326 10:-0.839243 11:-0.0051799 
8192 1:-0.930858 2:-0.866667 3:-0.950413 4:-0.935943 5:-0.880435 6:-0.959016 7:-0.873441 8:-0.947663 9:-0.952534 10:-0.947991 11:0.650007 
8192 1:-0.943662 2:-0.951515 3:-0.884298 4:-0.957295 5:-0.956522 6:-0.92623 7:-0.906896 8:-0.938172 9:-0.965595 10:-0.962175 11:0.569369 
8192 1:-0.825864 2:-0.757576 3:-0.818182 4:-0.814947 5:-0.771739 6:-0.811475 7:-0.858433 8:-0.939713 9:-0.942213 10:-0.815603 11:0.172617 
8192 1:-0.984635 2:-0.975758 3:-0.950413 4:-1 5:-0.978261 6:-0.95082 7:-0.78996 8:-0.941424 9:-0.92481 10:-0.985816 11:-0.049979 
8192 1:-0.984635 2:-0.975758 3:-0.950413 4:-1 5:-0.978261 6:-0.95082 7:-0.78996 8:-0.941424 9:-0.92481 10:-0.985816 11:-0.049979 
4686.02904087958 1:-0.137004 2:-0.333333 3:-0.0743802 4:-0.245552 5:-0.391304 6:-0.131148 7:-0.848046 8:-0.95035 9:-0.951165 10:-0.257683 11:0.118578 
7103.505365449058 1:-0.137004 2:-0.333333 3:-0.0743802 4:-0.245552 5:-0.391304 6:-0.131148 7:-0.848046 8:-0.95035 9:-0.951165 10:-0.257683 11:0.118578 
8192 1:-0.65685 2:-0.624242 3:-0.553719 4:-0.622776 5:-0.652174 6:-0.672131 7:-0.772486 8:-0.950726 9:-0.91038 10:-0.683215 11:0.455691 
4351.290919084669 1:-0.81306 2:-0.830303 3:-0.586777 4:-0.758007 5:-0.847826 6:-0.770492 7:-0.611569 8:-0.927874 9:-0.851825 10:-0.825059 11:0.800084 
8192 1:-0.569782 2:-0.50303 3:-0.603306 4:-0.572954 5:-0.48913 6:-0.581967 7:-0.834671 8:-0.944242 9:-0.931223 10:-0.560284 11:0.0572589 
8192 1:-0.979513 2:-0.939394 3:-0.983471 4:-0.992883 5:-0.934783 6:-0.983607 7:-0.861073 8:-0.920507 9:-0.933194 10:-0.985816 11:0.300014 
8192 1:-0.979513 2:-0.963636 3:-0.966942 4:-1 5:-0.967391 6:-0.983607 7:-0.801424 8:-0.939488 9:-0.91048 10:-1 11:1 
8192 1:-0.93598 2:-0.927273 3:-0.917355 4:-0.957295 5:-0.902174 6:-0.934426 7:-0.843217 8:-0.947362 9:-0.943315 10:-0.943262 11:0.0118998 
8192 1:-0.959027 2:-0.963636 3:-0.950413 4:-0.992883 5:-0.967391 6:-0.959016 7:-0.877262 8:-0.949767 9:-0.964426 10:-0.985816 11:0.300014 
5921.862315340625 1:0.0627401 2:-0.151515 3:-0.0413223 4:-0.124555 5:-0.173913 6:-0.0491803 7:-0.843252 8:-0.946422 9:-0.94248 10:-0.115839 11:0.0667787 
8192 1:-0.915493 2:-0.963636 3:-0.933884 4:-0.985765 5:-0.934783 6:-0.901639 7:-0.890568 8:-0.958863 9:-0.981194 10:-0.938534 11:-0.711046 
2146.27318235712 1:-0.288092 2:-0.127273 3:-0.38843 4:-0.259786 5:-0.195652 6:-0.344262 7:-0.85482 8:-0.950726 9:-0.946154 10:-0.295508 11:0.181856 
8192 1:-0.669654 2:-0.672727 3:-0.85124 4:-0.779359 5:-0.663043 6:-0.770492 7:-0.861247 8:-0.9502 9:-0.945887 10:-0.744681 11:-0.0914182 
8192 1:-0.920615 2:-0.90303 3:-0.966942 4:-0.964413 5:-0.913043 6:-0.92623 7:-0.88699 8:-0.949504 9:-0.96319 10:-0.943262 11:-0.153017 
8192 1:-0.918054 2:-0.927273 3:-0.834711 4:-0.921708 5:-0.913043 6:-0.885246 7:-0.856731 8:-0.921015 9:-0.928685 10:-0.919622 11:0.236455 
8192 1:-0.992318 2:-0.963636 3:-0.966942 4:-1 5:-0.967391 6:-0.983607 7:-0.851416 8:-0.952737 9:-0.94876 10:-1 11:1 
8192 1:-0.959027 2:-0.963636 3:-0.884298 4:-0.964413 5:-0.956522 6:-0.934426 7:-0.858815 8:-0.943547 9:-0.957111 10:-0.966903 11:0.533249 
8192 1:-0.948784 2:-0.939394 3:-0.917355 4:-0.964413 5:-0.923913 6:-0.942623 7:-0.835574 8:-0.910585 9:-0.909578 10:-0.957447 11:0.200056 
8192 1:-0.81306 2:-0.866667 3:-0.834711 4:-0.886121 5:-0.847826 6:-0.819672 7:-0.852354 8:-0.950087 9:-0.951466 10:-0.853428 11:-0.166737 
8192 1:-0.992318 2:-0.963636 3:-0.966942 4:-1 5:-0.967391 6:-0.983607 7:-0.789613 8:-0.923871 9:-0.892576 10:-1 11:1 
8192 1:-0.976953 2:-0.975758 3:-0.917355 4:-0.985765 5:-0.978261 6:-0.959016 7:-0.867188 8:-0.937176 9:-0.951833 10:-0.990544 11:1 
8192 1:-0.989757 2:-0.951515 3:-0.966942 4:-0.992883 5:-0.956522 6:-0.983607 7:-0.546604 8:-0.939563 9:-0.741662 10:-0.995272 11:1 
8192 1:-0.956466 2:-0.951515 3:-0.917355 4:-0.97153 5:-0.945652 6:-0.942623 7:-0.830363 8:-0.929396 9:-0.925846 10:-0.966903 11:0.300014 
8192 1:-0.923175 2:-0.915152 3:-0.950413 4:-0.964413 5:-0.913043 6:-0.92623 7:-0.788397 8:-0.930881 9:-0.888802 10:-0.943262 11:-0.153017 
2269.541505155471 1:-0.0729834 2:0.0787879 3:-0.107438 4:-0.0177936 5:-0.0217391 6:-0.295082 7:-0.832621 8:-0.938379 9:-0.926547 10:-0.191489 11:0.47501 
8192 1:-0.96927 2:-0.951515 3:-0.983471 4:-1 5:-0.945652 6:-0.983607 7:-0.732291 8:-0.932967 9:-0.83833 10:-0.990544 11:0.200056 
8192 1:-0.918054 2:-0.951515 3:-0.950413 4:-0.985765 5:-0.945652 6:-0.934426 7:-0.816606 8:-0.946047 9:-0.926213 10:-0.962175 11:-0.292174 
8192 1:-0.90781 2:-0.927273 3:-0.917355 4:-0.957295 5:-0.902174 6:-0.918033 7:-0.838388 8:-0.927968 9:-0.925111 10:-0.933806 11:-0.179056 
8192 1:-0.382843 2:-0.139394 3:-0.38843 4:-0.266904 5:-0.206522 6:-0.540984 7:-0.825291 8:-0.94116 9:-0.921804 10:-0.413712 11:0.544169 
8192 1:-0.966709 2:-0.963636 3:-0.933884 4:-0.985765 5:-0.945652 6:-0.967213 7:-0.759319 8:-0.917801 9:-0.885395 10:-0.981087 11:0.377852 
8192 1:-0.733675 2:-0.50303 3:-0.900826 4:-0.701068 5:-0.532609 6:-0.868852 7:-0.831301 8:-0.936218 9:-0.912084 10:-0.744681 11:0.430491 
604.5757940275721 1:-0.244558 2:-0.393939 3:-0.206612 4:-0.338078 5:-0.358696 6:-0.319672 7:-0.838631 8:-0.932666 9:-0.930288 10:-0.352246 11:0.132297 
8192 1:-0.705506 2:-0.684848 3:-0.85124 4:-0.786477 5:-0.695652 6:-0.754098 7:-0.82411 8:-0.938905 9:-0.914522 10:-0.749409 11:-0.110458 
5580.721898401673 1:-0.723431 2:-0.709091 3:-0.719008 4:-0.743772 5:-0.73913 6:-0.745902 7:-0.853674 8:-0.953526 9:-0.951466 10:-0.763593 11:0.287414 
8192 1:-0.974392 2:-0.951515 3:-0.917355 4:-0.97153 5:-0.956522 6:-0.942623 7:-0.824944 8:-0.941499 9:-0.935499 10:-0.971631 11:0.49097 
8192 1:-0.902689 2:-0.927273 3:-0.85124 4:-0.928826 5:-0.913043 6:-0.901639 7:-0.848463 8:-0.934508 9:-0.939942 10:-0.929078 11:0.300014 
8192 1:-0.956466 2:-0.963636 3:-0.933884 4:-0.985765 5:-0.945652 6:-0.942623 7:-0.876394 8:-0.92669 9:-0.942681 10:-0.966903 11:-0.166737 
8192 1:-0.959027 2:-0.987879 3:-0.917355 4:-0.992883 5:-0.98913 6:-0.934426 7:-0.815182 8:-0.954372 9:-0.970873 10:-0.981087 11:0.0667787 
8192 1:-0.915493 2:-0.866667 3:-0.950413 4:-0.935943 5:-0.869565 6:-0.95082 7:-0.863401 8:-0.948226 9:-0.945152 10:-0.938534 11:0.377852 
8192 1:-0.915493 2:-0.939394 3:-0.933884 4:-0.97153 5:-0.934783 6:-0.934426 7:-0.878444 8:-0.928682 9:-0.946789 10:-0.957447 11:0.000139997 
8192 1:-0.418694 2:-0.551515 3:-0.553719 4:-0.580071 5:-0.456522 6:-0.47541 7:-0.859197 8:-0.940803 9:-0.94542 10:-0.484634 11:-0.228055 
8192 1:-0.761844 2:-0.818182 3:-0.586777 4:-0.75089 5:-0.815217 6:-0.688525 7:-0.77728 8:-0.926859 9:-0.906539 10:-0.763593 11:0.236455 
292.497886996623 1:-0.802817 2:-0.709091 3:-0.669421 4:-0.72242 5:-0.73913 6:-0.795082 7:-0.71902 8:-0.933324 9:-0.866856 10:-0.791962 11:0.714406 
8192 1:-0.966709 2:-0.963636 3:-0.966942 4:-1 5:-0.956522 6:-0.967213 7:-0.724787 8:-0.915847 9:-0.849486 10:-0.985816 11:-0.049979 
8192 1:-0.805378 2:-0.709091 3:-0.950413 4:-0.843416 5:-0.728261 6:-0.893443 7:-0.812923 8:-0.933455 9:-0.895048 10:-0.843972 11:0.189416 
8192 1:-0.910371 2:-0.818182 3:-0.966942 4:-0.914591 5:-0.804348 6:-0.959016 7:-0.739065 8:-0.900926 9:-0.826004 10:-0.914894 11:0.269495 
8192 1:-0.979513 2:-0.975758 3:-0.900826 4:-0.978648 5:-0.978261 6:-0.95082 7:-0.861595 8:-0.940484 9:-0.955441 10:-0.985816 11:1 
7492.894263783997 1:-0.331626 2:-0.212121 3:-0.53719 4:-0.373665 5:-0.271739 6:-0.467213 7:-0.811777 8:-0.939751 9:-0.909344 10:-0.399527 11:0.172617 
4950.84134406803 1:-0.498079 2:-0.454545 3:-0.305785 4:-0.41637 5:-0.48913 6:-0.45082 7:-0.842939 8:-0.945614 9:-0.943282 10:-0.484634 11:0.336973 
8192 1:-0.974392 2:-0.951515 3:-0.950413 4:-0.985765 5:-0.956522 6:-0.967213 7:-0.820948 8:-0.952737 9:-0.933695 10:-0.985816 11:0.650007 
8192 1:-0.982074 2:-0.987879 3:-0.933884 4:-1 5:-0.978261 6:-0.959016 7:-0.385513 8:-0.92981 9:-0.850088 10:-0.990544 11:0.200056 
8192 1:-0.976953 2:-0.963636 3:-0.950413 4:-0.992883 5:-0.967391 6:-0.967213 7:-0.897342 8:-0.955856 9:-0.979491 10:-0.990544 11:0.599888 
8192 1:-0.974392 2:-0.951515 3:-0.950413 4:-0.985765 5:-0.956522 6:-0.967213 7:-0.847698 8:-0.928964 9:-0.930288 10:-0.985816 11:0.650007 
8192 1:-0.551857 2:-0.684848 3:-0.702479 4:-0.72242 5:-0.663043 6:-0.54918 7:-0.849713 8:-0.937778 9:-0.937436 10:-0.617021 11:-0.367493 
8192 1:-0.956466 2:-0.975758 3:-0.950413 4:-1 5:-0.956522 6:-0.967213 7:-0.751468 8:-0.926596 9:-0.894213 10:-0.985816 11:-0.049979 
8192 1:-0.856594 2:-0.757576 3:-0.818182 4:-0.814947 5:-0.76087 6:-0.836066 7:-0.844502 8:-0.940465 9:-0.934063 10:-0.825059 11:0.266695 
7013.047700783421 1:-0.861716 2:-0.818182 3:-0.85124 4:-0.864769 5:-0.836957 6:-0.860656 7:-0.871044 8:-0.939864 9:-0.950497 10:-0.87234 11:0.300014 
1030.707359129636 1:-0.252241 2:-0.00606061 3:-0.322314 4:-0.160142 5:-0.0869565 6:-0.516393 7:-0.823623 8:-0.944881 9:-0.922338 10:-0.347518 11:0.608288 
8192 1:-0.941101 2:-0.890909 3:-0.966942 4:-0.957295 5:-0.902174 6:-0.95082 7:-0.849748 8:-0.944731 9:-0.932025 10:-0.952719 11:0.253255 
3624.33059796887 1:-0.387964 2:-0.406061 3:-0.140496 4:-0.316726 5:-0.456522 6:-0.442623 7:-0.774431 8:-0.929171 9:-0.898021 10:-0.465721 11:0.596528 
8192 1:-0.992318 2:-0.975758 3:-0.950413 4:-1 5:-0.978261 6:-0.97541 7:-0.845232 8:-0.95129 9:-0.95661 10:-1 11:1 
8192 1:-0.992318 2:-0.963636 3:-0.966942 4:-1 5:-0.967391 6:-0.983607 7:-0.861247 8:-0.920038 9:-0.93119 10:-1 11:1 
8192 1:-0.951344 2:-0.939394 3:-0.933884 4:-0.97153 5:-0.934783 6:-0.959016 7:-0.83943 8:-0.942983 9:-0.937269 10:-0.971631 11:0.49097 
5266.767298473146 1:-0.387964 2:-0.139394 3:-0.702479 4:-0.402135 5:-0.195652 6:-0.614754 7:-0.811395 8:-0.942307 9:-0.902664 10:-0.451537 11:0.259415 
4982.646263667635 1:-0.682458 2:-0.624242 3:-0.553719 4:-0.622776 5:-0.663043 6:-0.696721 7:-0.75383 8:-0.935692 9:-0.888334 10:-0.702128 11:0.588128 
270.1962613576301 1:-0.503201 2:-0.69697 3:0.00826446 4:-0.423488 5:-0.728261 6:-0.368852 7:-0.825604 8:-0.940822 9:-0.944718 10:-0.541371 11:0.560689 
1580.418046570131 1:-0.851472 2:-0.624242 3:-0.933884 4:-0.786477 5:-0.652174 6:-0.942623 7:-0.742887 8:-0.954071 9:-0.839766 10:-0.839243 11:0.712726 
47.83201056848895 1:-0.134443 2:-0.115152 3:0.00826446 4:-0.0818505 5:-0.119565 6:-0.106557 7:-0.811569 8:-0.943848 9:-0.923942 10:-0.125296 11:0.174857 
8192 1:-0.989757 2:-0.963636 3:-0.966942 4:-1 5:-0.967391 6:-0.97541 7:-0.822025 8:-0.951027 9:-0.930589 10:-0.995272 11:0.533249 
8192 1:-0.797695 2:-0.830303 3:-0.85124 4:-0.871886 5:-0.793478 6:-0.819672 7:-0.85819 8:-0.929829 9:-0.936267 10:-0.829787 11:-0.229175 
8192 1:-0.964149 2:-0.975758 3:-0.917355 4:-0.985765 5:-0.978261 6:-0.942623 7:-0.825812 8:-0.91222 9:-0.908777 10:-0.981087 11:0.377852 
8192 1:-0.987196 2:-0.987879 3:-0.933884 4:-1 5:-0.98913 6:-0.959016 7:-0.898524 8:-0.950406 9:-0.978021 10:-0.995272 11:0.533249 
8192 1:-0.961588 2:-0.939394 3:-0.917355 4:-0.964413 5:-0.945652 6:-0.959016 7:-0.855793 8:-0.936462 9:-0.94228 10:-0.976359 11:1 
8192 1:-0.316261 2:-0.381818 3:-0.338843 4:-0.3879 5:-0.336957 6:-0.377049 7:-0.832864 8:-0.941217 9:-0.932092 10:-0.375887 11:0.0597788 
5804.590518197201 1:-0.989757 2:-0.963636 3:-0.966942 4:-1 5:-0.967391 6:-0.97541 7:-0.772937 8:-0.935899 9:-0.891507 10:-0.995272 11:0.533249 
8192 1:-0.918054 2:-0.939394 3:-0.933884 4:-0.97153 5:-0.902174 6:-0.918033 7:-0.893521 8:-0.939939 9:-0.963758 10:-0.933806 11:-0.473611 
8192 1:-0.982074 2:-0.987879 3:-0.933884 4:-1 5:-0.978261 6:-0.959016 7:-0.814973 8:-0.919962 9:-0.918697 10:-0.990544 11:0.200056 
4930.416730851637 1:-0.636364 2:-0.50303 3:-0.768595 4:-0.644128 5:-0.5 6:-0.770492 7:-0.816085 8:-0.934433 9:-0.906605 10:-0.673759 11:0.280974 
8192 1:-0.928297 2:-0.890909 3:-0.983471 4:-0.964413 5:-0.891304 6:-0.959016 7:-0.865624 8:-0.960949 9:-0.944852 10:-0.952719 11:0.0667787 
8192 1:-0.953905 2:-0.951515 3:-0.966942 4:-0.992883 5:-0.934783 6:-0.97541 7:-0.781379 8:-0.93744 9:-0.890873 10:-0.981087 11:0.0667787 
8192 1:-0.974392 2:-0.963636 3:-0.950413 4:-0.992883 5:-0.967391 6:-0.97541 7:-0.824839 8:-0.917707 9:-0.910747 10:-0.995272 11:1 
8192 1:-0.910371 2:-0.939394 3:-0.983471 4:-0.992883 5:-0.934783 6:-0.934426 7:-0.829251 8:-0.93479 9:-0.91195 10:-0.957447 11:-0.599888 
8192 1:-0.971831 2:-0.987879 3:-0.900826 4:-0.985765 5:-0.98913 6:-0.942623 7:-0.479208 8:-0.943754 9:-0.910848 10:-0.985816 11:0.650007 
8192 1:-0.933419 2:-0.951515 3:-0.917355 4:-0.97153 5:-0.934783 6:-0.92623 7:-0.88157 8:-0.945671 9:-0.963825 10:-0.952719 11:-0.119978 
8192 1:-0.162612 2:-0.115152 3:-0.454545 4:-0.281139 5:-0.173913 6:-0.327869 7:-0.840264 8:-0.94614 9:-0.932493 10:-0.276596 11:0.0785384 
8192 1:-0.892446 2:-0.890909 3:-0.917355 4:-0.935943 5:-0.858696 6:-0.909836 7:-0.896578 8:-0.952229 9:-0.973812 10:-0.910165 11:-0.166737 
8192 1:-0.976953 2:-0.951515 3:-0.966942 4:-0.992883 5:-0.956522 6:-0.959016 7:-0.718569 8:-0.931595 9:-0.847148 10:-0.981087 11:0.0667787 
37.32574433201415 1:-0.528809 2:-0.333333 3:-0.636364 4:-0.487544 5:-0.380435 6:-0.696721 7:-0.801529 8:-0.94475 9:-0.903699 10:-0.579196 11:0.49349 
8192 1:-0.976953 2:-0.951515 3:-0.950413 4:-0.985765 5:-0.956522 6:-0.967213 7:-0.570679 8:-0.89183 9:-0.749779 10:-0.985816 11:0.650007 
8192 1:-0.930858 2:-0.951515 3:-0.917355 4:-0.97153 5:-0.923913 6:-0.934426 7:-0.751989 8:-0.942777 9:-0.90557 10:-0.952719 11:-0.119978 
586.4682325885632 1:-0.357234 2:-0.272727 3:-0.0578512 4:-0.202847 5:-0.336957 6:-0.401639 7:-0.722807 8:-0.919023 9:-0.861278 10:-0.390071 11:0.644687 
6712.323461752639 1:-0.982074 2:-0.963636 3:-0.966942 4:-1 5:-0.967391 6:-0.967213 7:-0.663436 8:-0.904609 9:-0.806096 10:-0.990544 11:0.200056 
8192 1:-0.464789 2:-0.381818 3:-0.570248 4:-0.487544 5:-0.369565 6:-0.581967 7:-0.805906 8:-0.937458 9:-0.906939 10:-0.508274 11:0.177936 
8192 1:-0.715749 2:-0.660606 3:-0.636364 4:-0.679715 5:-0.684783 6:-0.754098 7:-0.768178 8:-0.909796 9:-0.872701 10:-0.744681 11:0.573009 
8192 1:-0.93854 2:-0.927273 3:-0.933884 4:-0.964413 5:-0.934783 6:-0.95082 7:-0.874101 8:-0.94661 9:-0.957478 10:-0.966903 11:0.533249 
161.7832868908749 1:-0.078105 2:0.345455 3:-0.471074 4:-0.0177936 5:0.25 6:-0.483607 7:-0.840542 8:-0.949824 9:-0.929086 10:-0.182033 11:0.449531 
8192 1:-0.918054 2:-0.951515 3:-0.933884 4:-0.978648 5:-0.891304 6:-0.92623 7:-0.882856 8:-0.922011 9:-0.942447 10:-0.933806 11:-0.620888 
8192 1:-0.941101 2:-0.987879 3:-0.867769 4:-0.97153 5:-0.967391 6:-0.92623 7:-0.848914 8:-0.933606 9:-0.947023 10:-0.966903 11:0.300014 
8192 1:-0.984635 2:-0.975758 3:-0.933884 4:-0.992883 5:-0.978261 6:-0.959016 7:-0.815981 8:-0.925525 9:-0.920835 10:-0.990544 11:0.599888 
8192 1:-0.976953 2:-0.963636 3:-0.933884 4:-0.985765 5:-0.967391 6:-0.967213 7:-0.832274 8:-0.93214 9:-0.930021 10:-0.990544 11:1 
1072.22230841542 1:-0.0422535 2:-0.115152 3:0.0909091 4:-0.0462633 5:-0.173913 6:-0.0409836 7:-0.800382 8:-0.941179 9:-0.917662 10:-0.111111 11:0.216576 
8192 1:-0.87452 2:-0.842424 3:-0.785124 4:-0.850534 5:-0.858696 6:-0.803279 7:-0.84551 8:-0.943528 9:-0.943616 10:-0.8487 11:0.167577 
8192 1:-0.971831 2:-0.939394 3:-0.966942 4:-0.985765 5:-0.945652 6:-0.967213 7:-0.817335 8:-0.946704 9:-0.915557 10:-0.981087 11:0.377852 
8192 1:-0.951344 2:-0.975758 3:-0.917355 4:-0.985765 5:-0.945652 6:-0.934426 7:-0.739065 8:-0.950181 9:-0.933127 10:-0.962175 11:-0.292174 
8192 1:-0.928297 2:-0.927273 3:-0.900826 4:-0.950178 5:-0.934783 6:-0.909836 7:-0.873406 8:-0.940296 9:-0.954138 10:-0.943262 11:0.176536 
8192 1:-0.984635 2:-0.975758 3:-0.950413 4:-1 5:-0.978261 6:-0.95082 7:-0.784888 8:-0.933625 9:-0.914555 10:-0.985816 11:-0.049979 
8192 1:-0.966709 2:-0.963636 3:-0.966942 4:-1 5:-0.967391 6:-0.97541 7:-0.883273 8:-0.940991 9:-0.958781 10:-0.995272 11:0.533249 
8192 1:-0.928297 2:-0.951515 3:-0.917355 4:-0.97153 5:-0.891304 6:-0.934426 7:-0.866771 8:-0.926446 9:-0.938505 10:-0.938534 11:-0.399972 
8192 1:-0.984635 2:-0.975758 3:-0.950413 4:-1 5:-0.978261 6:-0.967213 7:-0.828174 8:-0.869561 9:-0.862881 10:-0.995272 11:0.533249 
8192 1:-0.472471 2:-0.454545 3:-0.239669 4:-0.3879 5:-0.478261 6:-0.409836 7:-0.848741 8:-0.943096 9:-0.945052 10:-0.456265 11:0.323254 
8192 1:-0.933419 2:-0.915152 3:-0.950413 4:-0.964413 5:-0.902174 6:-0.942623 7:-0.812472 8:-0.931257 9:-0.905203 10:-0.947991 11:-0.049979 
8192 1:-0.77977 2:-0.781818 3:-0.834711 4:-0.836299 5:-0.73913 6:-0.819672 7:-0.842765 8:-0.930599 9:-0.926814 10:-0.806147 11:-0.0956181 
8192 1:-0.946223 2:-0.927273 3:-0.933884 4:-0.964413 5:-0.934783 6:-0.95082 7:-0.856696 8:-0.95704 9:-0.954873 10:-0.966903 11:0.533249 
8192 1:-0.925736 2:-0.927273 3:-0.966942 4:-0.978648 5:-0.891304 6:-0.959016 7:-0.833976 8:-0.959558 9:-0.930388 10:-0.952719 11:-0.306734 
8192 1:-0.887324 2:-0.90303 3:-0.933884 4:-0.950178 5:-0.902174 6:-0.909836 7:-0.858121 8:-0.944938 9:-0.944484 10:-0.929078 11:-0.119978 
8192 1:-0.948784 2:-0.963636 3:-0.900826 4:-0.97153 5:-0.967391 6:-0.909836 7:-0.81876 8:-0.941198 9:-0.940309 10:-0.957447 11:0.000139997 
8192 1:-0.976953 2:-0.951515 3:-0.966942 4:-0.992883 5:-0.956522 6:-0.97541 7:-0.811464 8:-0.880724 9:-0.876543 10:-0.990544 11:0.599888 
8192 1:-0.764405 2:-0.733333 3:-0.834711 4:-0.807829 5:-0.641304 6:-0.827869 7:-0.776411 8:-0.933061 9:-0.88309 10:-0.768322 11:-0.140697 
8192 1:-0.910371 2:-0.830303 3:-0.900826 4:-0.893238 5:-0.815217 6:-0.918033 7:-0.815946 8:-0.940014 9:-0.912217 10:-0.895981 11:0.273975 
8192 1:-0.989757 2:-0.975758 3:-0.950413 4:-1 5:-0.978261 6:-0.967213 7:-0.841827 8:-0.924773 9:-0.927015 10:-0.995272 11:0.533249 
8192 1:-0.976953 2:-0.963636 3:-0.917355 4:-0.978648 5:-0.967391 6:-0.959016 7:-0.775265 8:-0.86366 9:-0.835591 10:-0.985816 11:1 
8192 1:-0.644046 2:-0.587879 3:-0.570248 4:-0.608541 5:-0.630435 6:-0.696721 7:-0.788431 8:-0.943134 9:-0.908977 10:-0.687943 11:0.566289 
8192 1:-0.948784 2:-0.939394 3:-0.933884 4:-0.97153 5:-0.934783 6:-0.942623 7:-0.820462 8:-0.950331 9:-0.93296 10:-0.962175 11:0.138457 
8192 1:-0.239437 2:-0.260606 3:-0.322314 4:-0.309609 5:-0.304348 6:-0.286885 7:-0.856731 8:-0.942927 9:-0.944919 10:-0.309693 11:0.0914182 
8192 1:-0.96927 2:-0.951515 3:-0.966942 4:-0.992883 5:-0.945652 6:-0.959016 7:-0.846344 8:-0.93712 9:-0.932326 10:-0.976359 11:-0.119978 
6804.143476054805 1:-0.746479 2:-0.830303 3:-0.818182 4:-0.857651 5:-0.815217 6:-0.778689 7:-0.760743 8:-0.947738 9:-0.898355 10:-0.815603 11:-0.209016 
714.0853100816463 1:-0.987196 2:-0.987879 3:-0.917355 4:-0.992883 5:-0.98913 6:-0.959016 7:-0.478652 8:-0.939864 9:-0.895449 10:-0.995272 11:1 
8049.249011595622 1:-0.695262 2:-0.612121 3:-0.636364 4:-0.651246 5:-0.597826 6:-0.663934 7:-0.860379 8:-0.937101 9:-0.942981 10:-0.654846 11:0.138457 
8192 1:-0.920615 2:-0.866667 3:-0.917355 4:-0.921708 5:-0.869565 6:-0.934426 7:-0.85079 8:-0.932629 9:-0.932025 10:-0.929078 11:0.440011 
8192 1:-0.90781 2:-0.878788 3:-0.917355 4:-0.928826 5:-0.858696 6:-0.92623 7:-0.803196 8:-0.943115 9:-0.908209 10:-0.919622 11:0.109058 
8192 1:-0.805378 2:-0.806061 3:-0.735537 4:-0.807829 5:-0.804348 6:-0.770492 7:-0.849366 8:-0.935861 9:-0.938672 10:-0.806147 11:0.147977 
8192 1:-0.946223 2:-0.939394 3:-0.966942 4:-0.985765 5:-0.934783 6:-0.967213 7:-0.869863 8:-0.956025 9:-0.956376 10:-0.976359 11:0.160017 
8192 1:-0.81306 2:-0.866667 3:-0.867769 4:-0.900356 5:-0.782609 6:-0.909836 7:-0.868751 8:-0.942119 9:-0.951666 10:-0.877069 11:-0.0838583 
8192 1:-0.961588 2:-0.975758 3:-0.933884 4:-0.992883 5:-0.956522 6:-0.942623 7:-0.837624 8:-0.952755 9:-0.96005 10:-0.971631 11:-0.272575 
8192 1:-0.979513 2:-0.963636 3:-0.917355 4:-0.978648 5:-0.967391 6:-0.959016 7:-0.855307 8:-0.935316 9:-0.94405 10:-0.985816 11:1 
8192 1:-0.966709 2:-0.951515 3:-0.917355 4:-0.97153 5:-0.956522 6:-0.95082 7:-0.880702 8:-0.924003 9:-0.942046 10:-0.976359 11:0.720006 
8192 1:-0.974392 2:-0.975758 3:-0.950413 4:-1 5:-0.967391 6:-0.959016 7:-0.728504 8:-0.942495 9:-0.90233 10:-0.985816 11:-0.049979 
8192 1:-0.974392 2:-0.951515 3:-0.950413 4:-0.985765 5:-0.956522 6:-0.967213 7:-0.817405 8:-0.939469 9:-0.921637 10:-0.985816 11:0.650007 
1676.286292305238 1:-0.160051 2:-0.309091 3:-0.421488 4:-0.380783 5:-0.347826 6:-0.385246 7:-0.85291 8:-0.944919 9:-0.943215 10:-0.385343 11:0.108218 
8192 1:-0.900128 2:-0.793939 3:-0.966942 4:-0.900356 5:-0.804348 6:-0.934426 7:-0.80997 8:-0.946122 9:-0.894514 10:-0.900709 11:0.246255 
8192 1:-0.982074 2:-0.975758 3:-0.950413 4:-1 5:-0.978261 6:-0.967213 7:-0.828661 8:-0.937308 9:-0.935332 10:-0.995272 11:0.533249 
8192 1:-0.802817 2:-0.733333 3:-0.85124 4:-0.814947 5:-0.728261 6:-0.778689 7:-0.856627 8:-0.935109 9:-0.936735 10:-0.777778 11:-0.130617 
8192 1:-0.751601 2:-0.684848 3:-0.785124 4:-0.758007 5:-0.673913 6:-0.795082 7:-0.848741 8:-0.944506 9:-0.938238 10:-0.763593 11:0.185496 
7853.486823518088 1:-0.982074 2:-0.963636 3:-0.950413 4:-0.992883 5:-0.967391 6:-0.97541 7:-0.808477 8:-0.909363 9:-0.895449 10:-0.995272 11:1 
8192 1:-0.90525 2:-0.90303 3:-0.933884 4:-0.950178 5:-0.880435 6:-0.909836 7:-0.875352 8:-0.945595 9:-0.955942 10:-0.919622 11:-0.272575 
5357.646593081923 1:-0.697823 2:-0.69697 3:-0.586777 4:-0.679715 5:-0.728261 6:-0.737705 7:-0.752823 8:-0.928945 9:-0.886096 10:-0.754137 11:0.656167 
8192 1:-0.884763 2:-0.915152 3:-0.867769 4:-0.928826 5:-0.913043 6:-0.860656 7:-0.834428 8:-0.942814 9:-0.939574 10:-0.905437 11:-0.119978 
8192 1:-0.971831 2:-0.987879 3:-0.900826 4:-0.985765 5:-0.978261 6:-0.95082 7:-0.861734 8:-0.943359 9:-0.962789 10:-0.985816 11:0.650007 
8192 1:-0.959027 2:-0.927273 3:-0.933884 4:-0.964413 5:-0.934783 6:-0.959016 7:-0.501859 8:-0.89042 9:-0.702781 10:-0.971631 11:0.745485 
1404.610831381415 1:-0.43662 2:-0.369697 3:-0.38843 4:-0.402135 5:-0.402174 6:-0.5 7:-0.82748 8:-0.913629 9:-0.90734 10:-0.475177 11:0.348173 
1112.84891213198 1:-0.710627 2:-0.612121 3:-0.785124 4:-0.715302 5:-0.608696 6:-0.819672 7:-0.758068 8:-0.945238 9:-0.874539 10:-0.749409 11:0.372533 
5560.743876051471 1:-0.428937 2:-0.357576 3:-0.487603 4:-0.437722 5:-0.402174 6:-0.590164 7:-0.785444 8:-0.92654 9:-0.889737 10:-0.527187 11:0.440011 
4532.619940312345 1:0.0550576 2:0.357576 3:-0.355372 4:0.0391459 5:0.326087 6:-0.377049 7:-0.839673 8:-0.94366 9:-0.927883 10:-0.0874704 11:0.335293 
8192 1:-0.889885 2:-0.90303 3:-0.867769 4:-0.921708 5:-0.913043 6:-0.844262 7:-0.850026 8:-0.936331 9:-0.939374 10:-0.895981 11:-0.140697 
8192 1:-0.953905 2:-0.927273 3:-0.966942 4:-0.978648 5:-0.913043 6:-0.967213 7:-0.82067 8:-0.928626 9:-0.90704 10:-0.966903 11:0.0667787 
8192 1:-0.902689 2:-0.830303 3:-0.884298 4:-0.886121 5:-0.836957 6:-0.909836 7:-0.853465 8:-0.950312 9:-0.944685 10:-0.900709 11:0.461571 
8192 1:-0.96927 2:-0.963636 3:-0.950413 4:-0.992883 5:-0.945652 6:-0.95082 7:-0.902936 8:-0.955048 9:-0.981461 10:-0.971631 11:-0.272575 
8192 1:-0.823303 2:-0.842424 3:-0.785124 4:-0.850534 5:-0.826087 6:-0.795082 7:-0.852076 8:-0.906657 9:-0.914021 10:-0.829787 11:-0.0244995 
8192 1:-0.918054 2:-0.939394 3:-0.884298 4:-0.950178 5:-0.923913 6:-0.909836 7:-0.886712 8:-0.927273 9:-0.94729 10:-0.938534 11:0.0667787 
8192 1:-0.966709 2:-0.939394 3:-0.950413 4:-0.978648 5:-0.945652 6:-0.959016 7:-0.831648 8:-0.932008 9:-0.92157 10:-0.976359 11:0.440011 
8192 1:-0.787452 2:-0.769697 3:-0.818182 4:-0.822064 5:-0.75 6:-0.770492 7:-0.807678 8:-0.94537 9:-0.915357 10:-0.782506 11:-0.153017 
8192 1:-0.713188 2:-0.769697 3:-0.735537 4:-0.786477 5:-0.782609 6:-0.696721 7:-0.810596 8:-0.946667 9:-0.925879 10:-0.754137 11:-0.0807784 
1069.716946784515 1:-0.976953 2:-0.951515 3:-0.917355 4:-0.97153 5:-0.956522 6:-0.942623 7:-0.816502 8:-0.938868 9:-0.929319 10:-0.971631 11:0.49097 
8192 1:-0.953905 2:-0.987879 3:-0.933884 4:-1 5:-0.98913 6:-0.934426 7:-0.858433 8:-0.935523 9:-0.949161 10:-0.981087 11:-0.244295 
4064.561142533688 1:-0.272727 2:-0.369697 3:-0.272727 4:-0.352313 5:-0.402174 6:-0.262295 7:-0.79333 8:-0.934113 9:-0.906739 10:-0.338061 11:0.0538989 
8192 1:-0.964149 2:-0.963636 3:-0.917355 4:-0.978648 5:-0.956522 6:-0.959016 7:-0.825083 8:-0.942871 9:-0.941545 10:-0.981087 11:0.688926 
8192 1:-0.971831 2:-0.987879 3:-0.900826 4:-0.985765 5:-0.98913 6:-0.942623 7:-0.850512 8:-0.912577 9:-0.914355 10:-0.985816 11:0.650007 
8192 1:-0.746479 2:-0.709091 3:-0.719008 4:-0.743772 5:-0.73913 6:-0.704918 7:-0.830537 8:-0.932572 9:-0.923006 10:-0.739953 11:0.113258 
3446.637751123647 1:-0.464789 2:-0.248485 3:-0.355372 4:-0.316726 5:-0.293478 6:-0.57377 7:-0.810804 8:-0.935184 9:-0.911916 10:-0.470449 11:0.616968 
7019.929851866406 1:-0.288092 2:-0.2 3:-0.636364 4:-0.409253 5:-0.0978261 6:-0.565574 7:-0.864895 8:-0.940991 9:-0.944418 10:-0.380615 11:0.0118998 
8192 1:-0.979513 2:-0.975758 3:-0.950413 4:-1 5:-0.978261 6:-0.95082 7:-0.852458 8:-0.921917 9:-0.92805 10:-0.985816 11:-0.049979 
8192 1:-0.362356 2:-0.321212 3:-0.272727 4:-0.323843 5:-0.391304 6:-0.45082 7:-0.803509 8:-0.93868 9:-0.914322 10:-0.44208 11:0.47641 
8192 1:-0.925736 2:-0.951515 3:-0.917355 4:-0.97153 5:-0.934783 6:-0.92623 7:-0.861977 8:-0.940296 9:-0.950163 10:-0.952719 11:-0.119978 
8170.591233214229 1:-0.288092 2:-0.2 3:-0.636364 4:-0.409253 5:-0.0978261 6:-0.565574 7:-0.864895 8:-0.940991 9:-0.944418 10:-0.380615 11:0.0118998 
8192 1:-0.964149 2:-0.975758 3:-0.933884 4:-0.992883 5:-0.978261 6:-0.95082 7:-0.825743 8:-0.915565 9:-0.91215 10:-0.985816 11:0.300014 
8192 1:-0.951344 2:-0.951515 3:-0.917355 4:-0.97153 5:-0.956522 6:-0.92623 7:-0.86361 8:-0.946892 9:-0.957344 10:-0.962175 11:0.138457 
3204.323700841535 1:-0.162612 2:-0.224242 3:-0.190083 4:-0.231317 5:-0.271739 6:-0.409836 7:-0.794546 8:-0.932347 9:-0.904067 10:-0.36643 11:0.47613 
8192 1:-0.756722 2:-0.842424 3:-0.669421 4:-0.800712 5:-0.836957 6:-0.721311 7:-0.846517 8:-0.926765 9:-0.931056 10:-0.791962 11:0.0858183 
8192 1:-0.956466 2:-0.963636 3:-0.917355 4:-0.978648 5:-0.967391 6:-0.934426 7:-0.822442 8:-0.904008 9:-0.89742 10:-0.971631 11:0.236455 
8192 1:-0.984635 2:-0.963636 3:-0.966942 4:-1 5:-0.967391 6:-0.967213 7:-0.789752 8:-0.937458 9:-0.90233 10:-0.990544 11:0.200056 
8192 1:-0.910371 2:-0.90303 3:-0.933884 4:-0.950178 5:-0.913043 6:-0.909836 7:-0.85079 8:-0.953319 9:-0.944752 10:-0.933806 11:-0.0314994 
8192 1:-0.959027 2:-0.963636 3:-0.917355 4:-0.978648 5:-0.967391 6:-0.942623 7:-0.88692 8:-0.924961 9:-0.94395 10:-0.976359 11:0.440011 
8192 1:-0.93854 2:-0.890909 3:-0.933884 4:-0.94306 5:-0.880435 6:-0.934426 7:-0.63276 8:-0.923965 9:-0.782046 10:-0.933806 11:0.115778 
8192 1:-0.96927 2:-0.975758 3:-0.917355 4:-0.985765 5:-0.967391 6:-0.934426 7:-0.827236 8:-0.946817 9:-0.953069 10:-0.971631 11:-0.0180596 
193.1770266155021 1:-0.615877 2:-0.272727 3:-0.735537 4:-0.494662 5:-0.336957 6:-0.795082 7:-0.802501 8:-0.939939 9:-0.895683 10:-0.617021 11:0.674367 
8192 1:-0.928297 2:-0.890909 3:-0.917355 4:-0.935943 5:-0.880435 6:-0.934426 7:-0.841271 8:-0.930336 9:-0.925745 10:-0.933806 11:0.263055 
8192 1:-0.951344 2:-0.963636 3:-0.933884 4:-0.985765 5:-0.967391 6:-0.942623 7:-0.882161 8:-0.95253 9:-0.971307 10:-0.976359 11:0.160017 
209.5677450933965 1:-0.490397 2:-0.539394 3:-0.00826446 4:-0.338078 5:-0.576087 6:-0.409836 7:-0.785791 8:-0.934527 9:-0.91696 10:-0.498818 11:0.672127 
8192 1:-0.948784 2:-0.915152 3:-0.950413 4:-0.964413 5:-0.891304 6:-0.967213 7:-0.868404 8:-0.936763 9:-0.945787 10:-0.957447 11:0.200056 
8192 1:-0.943662 2:-0.866667 3:-0.966942 4:-0.94306 5:-0.869565 6:-0.983607 7:-0.807921 8:-0.937064 9:-0.894614 10:-0.957447 11:0.800084 
8192 1:-0.979513 2:-0.975758 3:-0.950413 4:-1 5:-0.967391 6:-0.967213 7:-0.785409 8:-0.927818 9:-0.908576 10:-0.990544 11:0.200056 
8192 1:-0.951344 2:-0.963636 3:-0.933884 4:-0.985765 5:-0.956522 6:-0.95082 7:-0.822929 8:-0.939262 9:-0.933428 10:-0.976359 11:0.160017 
8192 1:-0.615877 2:-0.648485 3:-0.520661 4:-0.622776 5:-0.684783 6:-0.663934 7:-0.786382 8:-0.939131 9:-0.911282 10:-0.692671 11:0.52009 
8192 1:-0.720871 2:-0.781818 3:-0.669421 4:-0.765125 5:-0.804348 6:-0.713115 7:-0.847073 8:-0.933004 9:-0.935733 10:-0.77305 11:0.207616 
8192 1:-0.961588 2:-0.915152 3:-0.950413 4:-0.964413 5:-0.923913 6:-0.967213 7:-0.827375 8:-0.940578 9:-0.9202 10:-0.971631 11:0.745485 
8192 1:-0.615877 2:-0.648485 3:-0.785124 4:-0.736655 5:-0.630435 6:-0.721311 7:-0.872781 8:-0.946704 9:-0.954305 10:-0.702128 11:-0.0706986 
8192 1:-0.756722 2:-0.721212 3:-0.619835 4:-0.708185 5:-0.73913 6:-0.770492 7:-0.718152 8:-0.929227 9:-0.869662 10:-0.777778 11:0.676886 
8192 1:-0.930858 2:-0.915152 3:-0.917355 4:-0.950178 5:-0.923913 6:-0.934426 7:-0.850895 8:-0.955255 9:-0.951299 10:-0.952719 11:0.440011 
8192 1:-0.690141 2:-0.69697 3:-0.652893 4:-0.708185 5:-0.706522 6:-0.655738 7:-0.843495 8:-0.934752 9:-0.933328 10:-0.6974 11:0.0667787 
8192 1:-0.910371 2:-0.927273 3:-0.917355 4:-0.957295 5:-0.902174 6:-0.92623 7:-0.784263 8:-0.927517 9:-0.896351 10:-0.938534 11:-0.0888982 
8192 1:-0.559539 2:-0.50303 3:-0.636364 4:-0.587189 5:-0.532609 6:-0.704918 7:-0.711412 8:-0.93759 9:-0.848752 10:-0.650118 11:0.433011 
6045.327324644872 1:-0.992318 2:-0.963636 3:-0.966942 4:-1 5:-0.967391 6:-0.983607 7:-0.776446 8:-0.950181 9:-0.903666 10:-1 11:1 
3648.935896613751 1:-0.825864 2:-0.733333 3:-0.636364 4:-0.72242 5:-0.75 6:-0.795082 7:-0.769498 8:-0.934846 9:-0.899357 10:-0.79669 11:0.766765 
8192 1:-0.941101 2:-0.987879 3:-0.917355 4:-0.992883 5:-0.967391 6:-0.934426 7:-0.675143 8:-0.932911 9:-0.916626 10:-0.971631 11:-0.272575 
8192 1:-0.90525 2:-0.890909 3:-0.966942 4:-0.957295 5:-0.880435 6:-0.934426 7:-0.883655 8:-0.940127 9:-0.957211 10:-0.933806 11:-0.179056 
8192 1:-0.943662 2:-0.939394 3:-0.933884 4:-0.97153 5:-0.945652 6:-0.942623 7:-0.882647 8:-0.960122 9:-0.973879 10:-0.966903 11:0.300014 
1131.28810910549 1:-0.728553 2:-0.733333 3:-0.785124 4:-0.786477 5:-0.728261 6:-0.786885 7:-0.849262 8:-0.940465 9:-0.93767 10:-0.782506 11:0.121658 
8192 1:-0.638924 2:-0.648485 3:-0.752066 4:-0.72242 5:-0.663043 6:-0.639344 7:-0.825569 8:-0.946648 9:-0.925211 10:-0.669031 11:-0.157217 
8192 1:-0.930858 2:-0.927273 3:-0.900826 4:-0.950178 5:-0.902174 6:-0.92623 7:-0.785826 8:-0.933869 9:-0.906338 10:-0.938534 11:0.0667787 
8192 1:-0.93598 2:-0.927273 3:-0.884298 4:-0.94306 5:-0.923913 6:-0.92623 7:-0.871391 8:-0.936631 9:-0.950363 10:-0.947991 11:0.47501 
8192 1:-0.946223 2:-0.90303 3:-0.950413 4:-0.957295 5:-0.902174 6:-0.959016 7:-0.856314 8:-0.947681 9:-0.942246 10:-0.957447 11:0.399972 
8192 1:-0.930858 2:-0.939394 3:-0.950413 4:-0.978648 5:-0.891304 6:-0.942623 7:-0.766232 8:-0.943453 9:-0.889904 10:-0.943262 11:-0.48229 
8192 1:-0.961588 2:-0.939394 3:-0.933884 4:-0.97153 5:-0.913043 6:-0.95082 7:-0.80469 8:-0.924247 9:-0.9039 10:-0.957447 11:0.000139997 
8192 1:-0.96927 2:-0.939394 3:-0.966942 4:-0.985765 5:-0.923913 6:-0.97541 7:-0.778253 8:-0.946084 9:-0.888401 10:-0.976359 11:0.160017 
235.9287729560031 1:-0.777209 2:-0.672727 3:-0.900826 4:-0.800712 5:-0.663043 6:-0.909836 7:-0.829495 8:-0.926822 9:-0.91028 10:-0.825059 11:0.399972 
8192 1:-0.971831 2:-0.963636 3:-0.950413 4:-0.992883 5:-0.956522 6:-0.97541 7:-0.841619 8:-0.945896 9:-0.94385 10:-0.990544 11:0.599888 
8192 1:-0.966709 2:-0.975758 3:-0.933884 4:-0.992883 5:-0.967391 6:-0.95082 7:-0.77464 8:-0.951252 9:-0.938071 10:-0.981087 11:0.0667787 
8192 1:-0.966709 2:-0.939394 3:-0.950413 4:-0.978648 5:-0.923913 6:-0.959016 7:-0.908112 8:-0.946723 9:-0.977353 10:-0.966903 11:0.0667787 
8192 1:-0.367478 2:-0.333333 3:-0.586777 4:-0.466192 5:-0.380435 6:-0.434426 7:-0.844398 8:-0.947099 9:-0.935833 10:-0.427896 11:-0.0222596 
8192 1:-0.956466 2:-0.890909 3:-0.917355 4:-0.935943 5:-0.891304 6:-0.95082 7:-0.840125 8:-0.941123 9:-0.931891 10:-0.947991 11:0.650007 
8192 1:-0.895006 2:-0.915152 3:-0.900826 4:-0.94306 5:-0.869565 6:-0.901639 7:-0.854612 8:-0.924022 9:-0.930455 10:-0.910165 11:-0.283214 
8192 1:-0.966709 2:-0.939394 3:-0.966942 4:-0.985765 5:-0.923913 6:-0.942623 7:-0.852354 8:-0.954578 9:-0.943616 10:-0.957447 11:-0.399972 
8192 1:-0.982074 2:-0.975758 3:-0.933884 4:-0.992883 5:-0.978261 6:-0.967213 7:-0.865798 8:-0.943058 9:-0.957578 10:-0.995272 11:1 
2752.982925503178 1:-0.53137 2:-0.430303 3:-0.735537 4:-0.587189 5:-0.467391 6:-0.622951 7:-0.805176 8:-0.93137 9:-0.897319 10:-0.574468 11:0.0569789 
3496.352760943302 1:-0.536492 2:-0.418182 3:-0.520661 4:-0.487544 5:-0.413043 6:-0.622951 7:-0.780406 8:-0.932854 9:-0.891507 10:-0.550827 11:0.356013 
8192 1:-0.976953 2:-0.951515 3:-0.950413 4:-0.985765 5:-0.956522 6:-0.97541 7:-0.819177 8:-0.935354 9:-0.919466 10:-0.990544 11:1 
8192 1:-0.341869 2:-0.406061 3:-0.53719 4:-0.487544 5:-0.413043 6:-0.442623 7:-0.848463 8:-0.939619 9:-0.936334 10:-0.446809 11:-0.0328993 
8192 1:-0.976953 2:-0.975758 3:-0.933884 4:-0.992883 5:-0.978261 6:-0.967213 7:-0.832586 8:-0.943867 9:-0.947891 10:-0.995272 11:1 
8192 1:-0.912932 2:-0.939394 3:-0.884298 4:-0.950178 5:-0.869565 6:-0.92623 7:-0.861907 8:-0.946779 9:-0.957578 10:-0.92435 11:-0.200056 
8192 1:-0.5621 2:-0.587879 3:-0.570248 4:-0.608541 5:-0.554348 6:-0.540984 7:-0.834983 8:-0.933192 9:-0.926714 10:-0.565012 11:-0.0678986 
7722.075161358822 1:-0.421255 2:-0.466667 3:-0.504132 4:-0.508897 5:-0.5 6:-0.622951 7:-0.74987 8:-0.937891 9:-0.880317 10:-0.588652 11:0.452051 
8192 1:-0.912932 2:-0.854545 3:-0.884298 4:-0.900356 5:-0.847826 6:-0.918033 7:-0.84478 8:-0.942946 9:-0.936468 10:-0.910165 11:0.416772 
8192 1:-0.966709 2:-0.963636 3:-0.884298 4:-0.964413 5:-0.967391 6:-0.942623 7:-0.768873 8:-0.860691 9:-0.828075 10:-0.976359 11:1 
8192 1:-0.90781 2:-0.927273 3:-0.867769 4:-0.935943 5:-0.934783 6:-0.868852 7:-0.850617 8:-0.942626 9:-0.948259 10:-0.919622 11:-0.0180596 
1948.002742536026 1:-0.418694 2:-0.478788 3:-0.322314 4:-0.437722 5:-0.51087 6:-0.47541 7:-0.833629 8:-0.946742 9:-0.939975 10:-0.508274 11:0.357693 
8192 1:-0.93854 2:-0.939394 3:-0.900826 4:-0.957295 5:-0.923913 6:-0.92623 7:-0.751919 8:-0.8926 9:-0.855532 10:-0.947991 11:0.125017 
7378.243075748597 1:-0.513444 2:-0.393939 3:-0.487603 4:-0.459075 5:-0.445652 6:-0.590164 7:-0.799305 8:-0.947719 9:-0.913386 10:-0.546099 11:0.445611 
8192 1:-0.961588 2:-0.975758 3:-0.900826 4:-0.978648 5:-0.978261 6:-0.92623 7:-0.83276 8:-0.929641 9:-0.934063 10:-0.971631 11:0.236455 
8192 1:-0.165173 2:-0.272727 3:-0.107438 4:-0.224199 5:-0.326087 6:-0.131148 7:-0.813549 8:-0.943942 9:-0.926514 10:-0.229314 11:0.100098 
8192 1:-0.641485 2:-0.672727 3:-0.818182 4:-0.765125 5:-0.695652 6:-0.696721 7:-0.847664 8:-0.948132 9:-0.937303 10:-0.716312 11:-0.163097 
8192 1:-0.979513 2:-0.975758 3:-0.950413 4:-1 5:-0.978261 6:-0.97541 7:-0.842279 8:-0.942138 9:-0.945687 10:-1 11:1 
8192 1:0.0371319 2:0.0666667 3:-0.272727 4:-0.0960854 5:0.0978261 6:-0.213115 7:-0.824492 8:-0.932572 9:-0.915624 10:-0.0921986 11:0.0762985 
8192 1:-0.971831 2:-0.975758 3:-0.950413 4:-1 5:-0.978261 6:-0.95082 7:-0.714087 8:-0.895382 9:-0.846547 10:-0.985816 11:-0.049979 
8192 1:-0.966709 2:-0.975758 3:-0.933884 4:-0.992883 5:-0.967391 6:-0.95082 7:-0.795901 8:-0.926089 9:-0.91509 10:-0.981087 11:0.0667787 
8192 1:-0.971831 2:-0.963636 3:-0.917355 4:-0.978648 5:-0.967391 6:-0.95082 7:-0.842209 8:-0.934715 9:-0.938672 10:-0.981087 11:0.688926 
8192 1:-0.956466 2:-0.915152 3:-0.917355 4:-0.950178 5:-0.913043 6:-0.934426 7:-0.838284 8:-0.938492 9:-0.931825 10:-0.947991 11:0.300014 
-8192 1:-0.90525 2:-0.927273 3:-0.933884 4:-0.964413 5:-0.923913 6:-0.95082 7:-0.892791 8:-0.941931 9:-0.96496 10:-0.962175 11:0.353773 
-8192 1:-0.989757 2:-0.987879 3:-0.917355 4:-0.992883 5:-0.98913 6:-0.959016 7:-0.866875 8:-0.884163 9:-0.875173 10:-0.995272 11:1 
-8192 1:-0.997439 2:-0.987879 3:-0.933884 4:-1 5:-0.98913 6:-0.967213 7:-0.878826 8:-0.948584 9:-0.971641 10:-1 11:1 
-8192 1:-0.971831 2:-0.975758 3:-0.917355 4:-0.985765 5:-0.978261 6:-0.942623 7:-0.878305 8:-0.945896 9:-0.965962 10:-0.981087 11:0.377852 
-8192 1:-0.959027 2:-0.975758 3:-0.950413 4:-1 5:-0.967391 6:-0.959016 7:-0.847351 8:-0.955518 9:-0.961921 10:-0.985816 11:-0.049979 
-6982.733558596356 1:-0.984635 2:-0.987879 3:-0.917355 4:-0.992883 5:-0.98913 6:-0.95082 7:-0.334515 8:-0.880235 9:-0.784017 10:-0.990544 11:0.599888 
-8192 1:-0.930858 2:-0.963636 3:-0.966942 4:-1 5:-0.956522 6:-0.95082 7:-0.856974 8:-0.961494 9:-0.95818 10:-0.976359 11:-0.399972 
-8192 1:-0.964149 2:-0.927273 3:-0.983471 4:-0.985765 5:-0.923913 6:-0.991803 7:-0.813966 8:-0.957284 9:-0.9039 10:-0.985816 11:0.650007 
-8192 1:-0.964149 2:-0.951515 3:-0.933884 4:-0.978648 5:-0.945652 6:-0.942623 7:-0.855654 8:-0.948922 9:-0.953269 10:-0.966903 11:0.0667787 
-8192 1:-0.90781 2:-0.927273 3:-0.867769 4:-0.935943 5:-0.923913 6:-0.860656 7:-0.87622 8:-0.938041 9:-0.954138 10:-0.910165 11:-0.166737 
-8192 1:-0.897567 2:-0.890909 3:-0.900826 4:-0.928826 5:-0.880435 6:-0.893443 7:-0.890186 8:-0.949598 9:-0.968902 10:-0.910165 11:-0.049979 
-4919.014992842759 1:-0.979513 2:-0.987879 3:-0.884298 4:-0.978648 5:-0.98913 6:-0.934426 7:-0.875908 8:-0.874109 9:-0.85737 10:-0.981087 11:0.688926 
-2865.396768185607 1:-0.756722 2:-0.866667 3:-0.702479 4:-0.829181 5:-0.847826 6:-0.729508 7:-0.855932 8:-0.942758 9:-0.952401 10:-0.801418 11:-0.0723786 
-8192 1:-0.959027 2:-0.963636 3:-0.900826 4:-0.97153 5:-0.956522 6:-0.942623 7:-0.897412 8:-0.939713 9:-0.963758 10:-0.971631 11:0.49097 
-7711.027427665969 1:-0.956466 2:-0.987879 3:-0.917355 4:-0.992883 5:-0.98913 6:-0.942623 7:-0.890881 8:-0.939845 9:-0.961486 10:-0.985816 11:0.300014 
-8192 1:-0.96927 2:-0.939394 3:-0.917355 4:-0.964413 5:-0.934783 6:-0.942623 7:-0.813132 8:-0.94443 9:-0.928852 10:-0.962175 11:0.353773 
-8192 1:-0.644046 2:-0.745455 3:-0.404959 4:-0.629893 5:-0.771739 6:-0.663934 7:-0.650339 8:-0.925224 9:-0.860276 10:-0.730496 11:0.774325 
-8192 1:-0.910371 2:-0.963636 3:-0.917355 4:-0.978648 5:-0.923913 6:-0.92623 7:-0.851728 8:-0.949861 9:-0.958914 10:-0.947991 11:-0.399972 
-8192 1:-0.956466 2:-0.951515 3:-0.950413 4:-0.985765 5:-0.945652 6:-0.95082 7:-0.827896 8:-0.92622 9:-0.917328 10:-0.971631 11:-0.0180596 
-8192 1:-0.864277 2:-0.769697 3:-0.818182 4:-0.822064 5:-0.782609 6:-0.901639 7:-0.764704 8:-0.928588 9:-0.878246 10:-0.87234 11:0.825003 
-8192 1:-0.928297 2:-0.866667 3:-0.917355 4:-0.921708 5:-0.847826 6:-0.909836 7:-0.728261 8:-0.913066 9:-0.840167 10:-0.905437 11:-0.00797984 
-8192 1:-0.979513 2:-0.951515 3:-0.966942 4:-0.992883 5:-0.945652 6:-0.967213 7:-0.842105 8:-0.938529 9:-0.930422 10:-0.981087 11:0.0667787 
-8192 1:-0.923175 2:-0.915152 3:-0.933884 4:-0.957295 5:-0.902174 6:-0.942623 7:-0.850895 8:-0.92498 9:-0.928351 10:-0.947991 11:0.125017 
-8192 1:-0.918054 2:-0.915152 3:-0.867769 4:-0.928826 5:-0.902174 6:-0.901639 7:-0.893903 8:-0.935109 9:-0.958948 10:-0.92435 11:0.200056 
-8192 1:-0.994878 2:-0.987879 3:-0.933884 4:-1 5:-0.98913 6:-0.959016 7:-0.756505 8:-0.940465 9:-0.936568 10:-0.995272 11:0.533249 
-8192 1:-0.989757 2:-0.951515 3:-0.966942 4:-0.992883 5:-0.956522 6:-0.983607 7:-0.842418 8:-0.956871 9:-0.941511 10:-0.995272 11:1 
-8192 1:-0.505762 2:-0.309091 3:-0.735537 4:-0.516014 5:-0.304348 6:-0.745902 7:-0.825986 8:-0.932478 9:-0.911115 10:-0.574468 11:0.351533 
-8192 1:-0.869398 2:-0.830303 3:-0.884298 4:-0.886121 5:-0.815217 6:-0.918033 7:-0.868508 8:-0.93774 9:-0.946923 10:-0.895981 11:0.377852 
-8192 1:-0.971831 2:-0.975758 3:-0.950413 4:-1 5:-0.978261 6:-0.95082 7:-0.845788 8:-0.939676 9:-0.944418 10:-0.985816 11:-0.049979 
-8192 1:-0.966709 2:-0.951515 3:-0.983471 4:-1 5:-0.923913 6:-0.991803 7:-0.715373 8:-0.93836 9:-0.82724 10:-0.985816 11:-0.049979 
-7684.915687766271 1:-0.959027 2:-0.975758 3:-0.917355 4:-0.985765 5:-0.978261 6:-0.959016 7:-0.91103 8:-0.956664 9:-0.98861 10:-0.990544 11:1 
-8192 1:-0.964149 2:-0.963636 3:-0.950413 4:-0.992883 5:-0.945652 6:-0.967213 7:-0.757513 8:-0.947306 9:-0.904668 10:-0.981087 11:0.0667787 
-3369.304801625508 1:-0.941101 2:-0.951515 3:-0.966942 4:-0.992883 5:-0.913043 6:-0.92623 7:-0.923467 8:-0.93603 9:-0.981127 10:-0.943262 11:-0.811844 
-726.1060442017929 1:-0.708067 2:-0.818182 3:-0.801653 4:-0.843416 5:-0.673913 6:-0.811475 7:-0.887233 8:-0.940709 9:-0.960985 10:-0.77305 11:-0.373653 
-8192 1:-0.989757 2:-0.975758 3:-0.950413 4:-1 5:-0.967391 6:-0.97541 7:-0.823207 8:-0.958374 9:-0.955674 10:-0.995272 11:0.533249 
-8192 1:-0.953905 2:-0.987879 3:-0.867769 4:-0.97153 5:-0.978261 6:-0.909836 7:-0.760188 8:-0.904665 9:-0.891841 10:-0.962175 11:0.138457 
-8192 1:-0.925736 2:-0.915152 3:-0.884298 4:-0.935943 5:-0.923913 6:-0.92623 7:-0.784471 8:-0.946817 9:-0.917194 10:-0.947991 11:0.650007 
-8192 1:-0.897567 2:-0.890909 3:-0.900826 4:-0.928826 5:-0.891304 6:-0.893443 7:-0.863123 8:-0.931407 9:-0.940342 10:-0.914894 11:0.0261795 
-8192 1:-0.725992 2:-0.709091 3:-0.68595 4:-0.729537 5:-0.728261 6:-0.729508 7:-0.818239 8:-0.938266 9:-0.922071 10:-0.749409 11:0.275934 
-8192 1:-0.78233 2:-0.830303 3:-0.801653 4:-0.850534 5:-0.804348 6:-0.803279 7:-0.896995 8:-0.933474 9:-0.960184 10:-0.825059 11:-0.0667787 
-258.3416425333718 1:-0.795134 2:-0.866667 3:-0.752066 4:-0.850534 5:-0.804348 6:-0.786885 7:-0.876012 8:-0.939432 9:-0.955507 10:-0.815603 11:-0.145457 
-2376.779024610806 1:-0.959027 2:-0.963636 3:-0.966942 4:-1 5:-0.967391 6:-0.95082 7:-0.776064 8:-0.881156 9:-0.854397 10:-0.981087 11:-0.244295 
-8192 1:-0.93854 2:-0.975758 3:-0.900826 4:-0.978648 5:-0.956522 6:-0.92623 7:-0.86361 8:-0.942889 9:-0.959148 10:-0.962175 11:-0.0768585 
-8192 1:-0.994878 2:-0.987879 3:-0.933884 4:-1 5:-0.98913 6:-0.959016 7:-0.859232 8:-0.916674 9:-0.922539 10:-0.995272 11:0.533249 
-8192 1:-0.943662 2:-0.951515 3:-0.933884 4:-0.978648 5:-0.923913 6:-0.92623 7:-0.827306 8:-0.93541 9:-0.927649 10:-0.947991 11:-0.399972 
-8192 1:-0.964149 2:-0.963636 3:-0.933884 4:-0.985765 5:-0.967391 6:-0.95082 7:-0.880215 8:-0.946328 9:-0.964225 10:-0.981087 11:0.377852 
-8192 1:-0.943662 2:-0.987879 3:-0.933884 4:-1 5:-0.978261 6:-0.934426 7:-0.793156 8:-0.953582 9:-0.962288 10:-0.976359 11:-0.399972 
-8192 1:-0.953905 2:-0.963636 3:-0.933884 4:-0.985765 5:-0.956522 6:-0.95082 7:-0.823901 8:-0.860108 9:-0.853428 10:-0.976359 11:0.160017 
-8192 1:-0.96927 2:-0.987879 3:-0.917355 4:-0.992883 5:-0.978261 6:-0.95082 7:-0.850269 8:-0.945351 9:-0.963157 10:-0.985816 11:0.300014 
-1749.440067716945 1:-0.941101 2:-0.915152 3:-0.950413 4:-0.964413 5:-0.913043 6:-0.92623 7:-0.876846 8:-0.949711 9:-0.95838 10:-0.943262 11:-0.153017 
-2250.355346208014 1:-0.923175 2:-0.939394 3:-0.900826 4:-0.957295 5:-0.913043 6:-0.909836 7:-0.874865 8:-0.940221 9:-0.955441 10:-0.933806 11:-0.179056 
-8192 1:-0.918054 2:-0.927273 3:-0.917355 4:-0.957295 5:-0.891304 6:-0.901639 7:-0.858607 8:-0.933587 9:-0.940276 10:-0.919622 11:-0.399972 
-8192 1:-0.961588 2:-0.915152 3:-0.933884 4:-0.957295 5:-0.913043 6:-0.967213 7:-0.847212 8:-0.927705 9:-0.927883 10:-0.966903 11:0.766765 
-8192 1:-0.526248 2:-0.587879 3:-0.454545 4:-0.558719 5:-0.619565 6:-0.647541 7:-0.696196 8:-0.925788 9:-0.854898 10:-0.654846 11:0.605208 
-8192 1:-0.976953 2:-0.951515 3:-0.966942 4:-0.992883 5:-0.956522 6:-0.95082 7:-0.856279 8:-0.947024 9:-0.944585 10:-0.976359 11:-0.119978 
-8192 1:-0.989757 2:-0.975758 3:-0.950413 4:-1 5:-0.956522 6:-0.967213 7:-0.752962 8:-0.940897 9:-0.910013 10:-0.985816 11:-0.049979 
-8192 1:-0.982074 2:-0.963636 3:-0.966942 4:-1 5:-0.956522 6:-0.97541 7:-0.776238 8:-0.940916 9:-0.896952 10:-0.990544 11:0.200056 
-8192 1:-0.966709 2:-0.987879 3:-0.917355 4:-0.992883 5:-0.98913 6:-0.95082 7:-0.879555 8:-0.943791 9:-0.965495 10:-0.990544 11:0.599888 
-8192 1:-0.987196 2:-0.987879 3:-0.933884 4:-1 5:-0.967391 6:-0.967213 7:-0.815077 8:-0.934188 9:-0.938906 10:-0.990544 11:0.200056 
-8192 1:-0.93598 2:-0.915152 3:-0.867769 4:-0.928826 5:-0.923913 6:-0.901639 7:-0.849574 8:-0.915433 9:-0.920434 10:-0.933806 11:0.410612 
-6852.092980503999 1:-0.971831 2:-0.975758 3:-0.917355 4:-0.985765 5:-0.934783 6:-0.942623 7:-0.780268 8:-0.935278 9:-0.925545 10:-0.962175 11:-0.292174 
-8192 1:-0.987196 2:-0.975758 3:-0.950413 4:-1 5:-0.978261 6:-0.97541 7:-0.836547 8:-0.953808 9:-0.955942 10:-1 11:1 
-8192 1:-0.966709 2:-0.975758 3:-0.933884 4:-0.992883 5:-0.978261 6:-0.95082 7:-0.820914 8:-0.938605 9:-0.937904 10:-0.985816 11:0.300014 
-8192 1:-0.953905 2:-0.975758 3:-0.884298 4:-0.97153 5:-0.978261 6:-0.92623 7:-0.914261 8:-0.903369 9:-0.916159 10:-0.971631 11:0.49097 
-8192 1:-0.982074 2:-0.987879 3:-0.933884 4:-1 5:-0.98913 6:-0.959016 7:-0.804238 8:-0.95191 9:-0.962054 10:-0.995272 11:0.533249 
-8192 1:-0.833547 2:-0.806061 3:-0.834711 4:-0.850534 5:-0.804348 6:-0.852459 7:-0.885183 8:-0.933023 9:-0.954372 10:-0.853428 11:0.222176 
-8192 1:-0.446863 2:-0.478788 3:-0.504132 4:-0.516014 5:-0.478261 6:-0.409836 7:-0.836894 8:-0.944825 9:-0.935399 10:-0.456265 11:-0.0967381 
-8192 1:-0.928297 2:-0.963636 3:-0.933884 4:-0.985765 5:-0.956522 6:-0.934426 7:-0.876255 8:-0.921128 9:-0.936969 10:-0.966903 11:-0.166737 
-8192 1:-0.554417 2:-0.612121 3:-0.421488 4:-0.558719 5:-0.619565 6:-0.557377 7:-0.788987 8:-0.933493 9:-0.909411 10:-0.602837 11:0.307854 
-8192 1:-0.951344 2:-0.963636 3:-0.900826 4:-0.97153 5:-0.967391 6:-0.934426 7:-0.892513 8:-0.954071 9:-0.979223 10:-0.971631 11:0.49097 
-8192 1:-0.992318 2:-0.987879 3:-0.933884 4:-1 5:-0.98913 6:-0.967213 7:-0.853952 8:-0.933662 9:-0.945653 10:-1 11:1 
-8192 1:-0.951344 2:-0.927273 3:-0.917355 4:-0.957295 5:-0.934783 6:-0.942623 7:-0.814765 8:-0.920695 9:-0.906873 10:-0.962175 11:0.569369 
-8192 1:-0.966709 2:-0.975758 3:-0.950413 4:-1 5:-0.967391 6:-0.97541 7:-0.69901 8:-0.939619 9:-0.8879 10:-0.995272 11:0.533249 
-8192 1:-0.982074 2:-0.951515 3:-0.933884 4:-0.978648 5:-0.956522 6:-0.959016 7:-0.692861 8:-0.883956 9:-0.817286 10:-0.981087 11:0.688926 
-8192 1:-0.976953 2:-0.951515 3:-0.966942 4:-0.992883 5:-0.956522 6:-0.97541 7:-0.574605 8:-0.884332 9:-0.726864 10:-0.990544 11:0.599888 
-8192 1:-0.989757 2:-0.975758 3:-0.950413 4:-1 5:-0.978261 6:-0.97541 7:-0.752197 8:-0.876364 9:-0.840902 10:-1 11:1 
-8192 1:-0.336748 2:-0.284848 3:-0.322314 4:-0.323843 5:-0.358696 6:-0.467213 7:-0.787077 8:-0.944806 9:-0.907073 10:-0.437352 11:0.458211 
-8192 1:-0.961588 2:-0.975758 3:-0.933884 4:-0.992883 5:-0.978261 6:-0.92623 7:-0.844468 8:-0.945633 9:-0.953804 10:-0.971631 11:-0.272575 
-8192 1:-0.959027 2:-0.963636 3:-0.884298 4:-0.964413 5:-0.967391 6:-0.92623 7:-0.718256 8:-0.912051 9:-0.877378 10:-0.966903 11:0.533249 
-8192 1:-0.976953 2:-0.975758 3:-0.950413 4:-1 5:-0.956522 6:-0.959016 7:-0.789335 8:-0.93883 9:-0.921804 10:-0.981087 11:-0.244295 
-8192 1:-0.984635 2:-0.987879 3:-0.933884 4:-1 5:-0.98913 6:-0.959016 7:-0.878652 8:-0.912088 9:-0.919733 10:-0.995272 11:0.533249 
-8192 1:-0.953905 2:-0.927273 3:-0.950413 4:-0.97153 5:-0.913043 6:-0.97541 7:-0.851172 8:-0.942908 9:-0.938839 10:-0.971631 11:0.49097 
-8192 1:-0.457106 2:-0.406061 3:-0.669421 4:-0.544484 5:-0.423913 6:-0.647541 7:-0.785444 8:-0.938586 9:-0.889937 10:-0.56974 11:0.212656 
-8192 1:-0.866837 2:-0.866667 3:-0.884298 4:-0.907473 5:-0.836957 6:-0.893443 7:-0.89901 8:-0.943284 9:-0.969537 10:-0.891253 11:0.000139997 
-8192 1:-0.795134 2:-0.709091 3:-0.752066 4:-0.758007 5:-0.73913 6:-0.844262 7:-0.771027 8:-0.93588 9:-0.888735 10:-0.820331 11:0.739605 
-8192 1:-0.979513 2:-0.951515 3:-0.983471 4:-1 5:-0.956522 6:-0.983607 7:-0.75185 8:-0.912239 9:-0.845979 10:-0.995272 11:0.533249 
-8192 1:-0.93598 2:-0.951515 3:-0.884298 4:-0.957295 5:-0.913043 6:-0.92623 7:-0.868056 8:-0.943603 9:-0.958146 10:-0.943262 11:0.0118998 
-8192 1:-0.925736 2:-0.939394 3:-0.867769 4:-0.94306 5:-0.923913 6:-0.893443 7:-0.888484 8:-0.945859 9:-0.967599 10:-0.929078 11:0.0200196 
-8192 1:-0.984635 2:-0.963636 3:-0.933884 4:-0.985765 5:-0.967391 6:-0.959016 7:-0.659267 8:-0.856895 9:-0.782313 10:-0.985816 11:0.650007 
-8192 1:-0.746479 2:-0.69697 3:-0.735537 4:-0.743772 5:-0.717391 6:-0.778689 7:-0.794754 8:-0.928419 9:-0.898088 10:-0.77305 11:0.366093 
-8192 1:-0.77977 2:-0.733333 3:-0.619835 4:-0.715302 5:-0.76087 6:-0.786885 7:-0.743026 8:-0.928626 9:-0.882422 10:-0.79669 11:0.825003 
-8192 1:-0.93598 2:-0.951515 3:-0.950413 4:-0.985765 5:-0.923913 6:-0.959016 7:-0.846344 8:-0.926408 9:-0.927582 10:-0.966903 11:-0.166737 
-8192 1:-0.948784 2:-0.890909 3:-1 4:-0.97153 5:-0.891304 6:-1 7:-0.681883 8:-1 9:-0.762205 10:-0.976359 11:0.720006 
-8192 1:-0.984635 2:-0.963636 3:-0.966942 4:-1 5:-0.967391 6:-0.983607 7:-0.805037 8:-0.924228 9:-0.901729 10:-1 11:1 
-8192 1:-0.766965 2:-0.745455 3:-0.669421 4:-0.743772 5:-0.76087 6:-0.762295 7:-0.823207 8:-0.942175 9:-0.930856 10:-0.782506 11:0.450931 
-8192 1:-0.956466 2:-0.951515 3:-0.983471 4:-1 5:-0.945652 6:-0.983607 7:-0.843738 8:-0.946535 9:-0.928852 10:-0.990544 11:0.200056 
-8192 1:-0.923175 2:-0.975758 3:-0.867769 4:-0.964413 5:-0.967391 6:-0.893443 7:-0.860379 8:-0.944863 9:-0.962823 10:-0.947991 11:-0.049979 
-8192 1:-0.956466 2:-0.951515 3:-0.917355 4:-0.97153 5:-0.923913 6:-0.959016 7:-0.484141 8:-0.889387 9:-0.738388 10:-0.966903 11:0.300014 
-8192 1:-0.807939 2:-0.830303 3:-0.85124 4:-0.871886 5:-0.728261 6:-0.877049 7:-0.855168 8:-0.903143 9:-0.915958 10:-0.834515 11:-0.189976 
-8192 1:-0.989757 2:-0.963636 3:-0.950413 4:-0.992883 5:-0.967391 6:-0.97541 7:-0.878583 8:-0.939319 9:-0.955775 10:-0.995272 11:1 
-8192 1:-0.979513 2:-0.975758 3:-0.950413 4:-1 5:-0.956522 6:-0.967213 7:-0.800139 8:-0.948828 9:-0.936635 10:-0.985816 11:-0.049979 
-8192 1:-0.96927 2:-0.987879 3:-0.917355 4:-0.992883 5:-0.956522 6:-0.942623 7:-0.799236 8:-0.946216 9:-0.956242 10:-0.971631 11:-0.272575 
-8192 1:-0.833547 2:-0.854545 3:-0.702479 4:-0.822064 5:-0.858696 6:-0.836066 7:-0.703318 8:-0.931351 9:-0.880785 10:-0.867612 11:0.745485 
-8192 1:-0.979513 2:-0.975758 3:-0.933884 4:-0.992883 5:-0.978261 6:-0.959016 7:-0.871461 8:-0.946591 9:-0.963591 10:-0.990544 11:0.599888 
-8192 1:-0.979513 2:-0.963636 3:-0.966942 4:-1 5:-0.956522 6:-0.983607 7:-0.84881 8:-0.94133 9:-0.93914 10:-0.995272 11:0.533249 
-8192 1:-0.90525 2:-0.927273 3:-0.917355 4:-0.957295 5:-0.913043 6:-0.918033 7:-0.884349 8:-0.939432 9:-0.95848 10:-0.938534 11:-0.0888982 
-8192 1:-0.96927 2:-0.963636 3:-0.966942 4:-1 5:-0.967391 6:-0.97541 7:-0.751468 8:-0.920883 9:-0.868459 10:-0.995272 11:0.533249 
-900.3405079146555 1:-0.518566 2:-0.333333 3:-0.818182 4:-0.565836 5:-0.206522 6:-0.745902 7:-0.861734 8:-0.946422 9:-0.941445 10:-0.531915 11:-0.0230995 
-8192 1:-0.953905 2:-0.878788 3:-0.966942 4:-0.950178 5:-0.891304 6:-0.967213 7:-0.868334 8:-0.940428 9:-0.944952 10:-0.957447 11:0.599888 
-8192 1:-0.930858 2:-0.915152 3:-0.917355 4:-0.950178 5:-0.891304 6:-0.918033 7:-0.798576 8:-0.937891 9:-0.909077 10:-0.929078 11:-0.119978 
-8192 1:-0.976953 2:-0.987879 3:-0.933884 4:-1 5:-0.98913 6:-0.95082 7:-0.851277 8:-0.938304 9:-0.951733 10:-0.990544 11:0.200056 
-8192 1:-0.93854 2:-0.963636 3:-0.917355 4:-0.978648 5:-0.945652 6:-0.934426 7:-0.813966 8:-0.882152 9:-0.870096 10:-0.962175 11:-0.0768585 
-8192 1:-0.84379 2:-0.890909 3:-0.801653 4:-0.886121 5:-0.847826 6:-0.827869 7:-0.749904 8:-0.887132 9:-0.850355 10:-0.858156 11:-0.119978 
-8192 1:-0.851472 2:-0.793939 3:-0.801653 4:-0.829181 5:-0.815217 6:-0.836066 7:-0.717388 8:-0.936838 9:-0.862313 10:-0.8487 11:0.394652 
-8192 1:-0.951344 2:-0.963636 3:-0.917355 4:-0.978648 5:-0.967391 6:-0.942623 7:-0.899705 8:-0.941611 9:-0.967065 10:-0.976359 11:0.440011 
-8192 1:-0.971831 2:-0.987879 3:-0.933884 4:-1 5:-0.98913 6:-0.967213 7:-0.874379 8:-0.954954 9:-0.979858 10:-1 11:1 
-8192 1:-0.982074 2:-0.963636 3:-0.933884 4:-0.985765 5:-0.967391 6:-0.967213 7:-0.588223 8:-0.928475 9:-0.825737 10:-0.990544 11:1 
-8192 1:-0.93598 2:-0.927273 3:-0.933884 4:-0.964413 5:-0.913043 6:-0.918033 7:-0.874032 8:-0.937289 9:-0.950831 10:-0.938534 11:-0.244295 
-8192 1:-0.982074 2:-0.963636 3:-0.917355 4:-0.978648 5:-0.967391 6:-0.95082 7:-0.853222 8:-0.942438 9:-0.951198 10:-0.981087 11:0.688926 
-8192 1:-0.928297 2:-0.842424 3:-0.900826 4:-0.900356 5:-0.858696 6:-0.942623 7:-0.733299 8:-0.93806 9:-0.857871 10:-0.929078 11:0.860003 
-8192 1:-0.964149 2:-0.951515 3:-0.950413 4:-0.985765 5:-0.956522 6:-0.95082 7:-0.865173 8:-0.953037 9:-0.958213 10:-0.976359 11:0.160017 
-8192 1:-0.90525 2:-0.915152 3:-0.85124 4:-0.921708 5:-0.902174 6:-0.901639 7:-0.894285 8:-0.938548 9:-0.962154 10:-0.92435 11:0.333333 
-8192 1:-0.971831 2:-0.963636 3:-0.950413 4:-0.992883 5:-0.945652 6:-0.959016 7:-0.827688 8:-0.939958 9:-0.931891 10:-0.976359 11:-0.119978 
-8192 1:-0.823303 2:-0.915152 3:-0.900826 4:-0.94306 5:-0.869565 6:-0.885246 7:-0.874414 8:-0.944562 9:-0.957578 10:-0.900709 11:-0.399972 
-8192 1:-0.941101 2:-0.939394 3:-0.950413 4:-0.978648 5:-0.945652 6:-0.959016 7:-0.895814 8:-0.934527 9:-0.96182 10:-0.976359 11:0.440011 
-8192 1:-0.610755 2:-0.478788 3:-0.652893 4:-0.580071 5:-0.48913 6:-0.704918 7:-0.794025 8:-0.929829 9:-0.894079 10:-0.631206 11:0.359093 
-8192 1:-0.992318 2:-0.975758 3:-0.950413 4:-1 5:-0.967391 6:-0.97541 7:-0.631162 8:-0.954954 9:-0.87818 10:-0.995272 11:0.533249 
-1472.49035684429 1:-0.920615 2:-0.939394 3:-0.966942 4:-0.985765 5:-0.891304 6:-0.918033 7:-0.914018 8:-0.950181 9:-0.983733 10:-0.929078 11:-0.819964 
-8192 1:-0.976953 2:-0.927273 3:-0.966942 4:-0.978648 5:-0.934783 6:-0.983607 7:-0.853048 8:-0.867118 9:-0.903065 10:-0.985816 11:1 
-8192 1:-0.933419 2:-0.927273 3:-0.884298 4:-0.94306 5:-0.934783 6:-0.942623 7:-0.866285 8:-0.930749 9:-0.942447 10:-0.962175 11:1 
-8192 1:-0.982074 2:-0.963636 3:-0.933884 4:-0.985765 5:-0.967391 6:-0.95082 7:-0.856453 8:-0.94007 9:-0.948058 10:-0.981087 11:0.377852 
-8192 1:-0.964149 2:-0.975758 3:-0.917355 4:-0.985765 5:-0.956522 6:-0.942623 7:-0.720966 8:-0.940728 9:-0.916192 10:-0.971631 11:-0.0180596 
-8192 1:-0.53137 2:-0.418182 3:-0.38843 4:-0.430605 5:-0.456522 6:-0.532787 7:-0.786799 8:-0.938717 9:-0.904902 10:-0.51773 11:0.424332 
-8192 1:-0.959027 2:-0.975758 3:-0.917355 4:-0.985765 5:-0.956522 6:-0.95082 7:-0.669376 8:-0.854527 9:-0.792568 10:-0.976359 11:0.160017 
-8192 1:-0.948784 2:-0.963636 3:-0.966942 4:-1 5:-0.945652 6:-0.97541 7:-0.690394 8:-0.931821 9:-0.841002 10:-0.985816 11:-0.049979 
-8192 1:-0.982074 2:-0.987879 3:-0.933884 4:-1 5:-0.98913 6:-0.967213 7:-0.884106 8:-0.953488 9:-0.979658 10:-1 11:1 
-2321.565461646592 1:-0.897567 2:-0.890909 3:-0.966942 4:-0.957295 5:-0.869565 6:-0.909836 7:-0.854438 8:-0.928663 9:-0.930522 10:-0.914894 11:-0.460731 
-8192 1:-0.966709 2:-0.927273 3:-0.966942 4:-0.978648 5:-0.934783 6:-0.97541 7:-0.759458 8:-0.901564 9:-0.850889 10:-0.981087 11:0.688926 
-8192 1:-0.964149 2:-0.975758 3:-0.950413 4:-1 5:-0.978261 6:-0.959016 7:-0.840229 8:-0.93977 9:-0.94238 10:-0.990544 11:0.200056 
-8192 1:-0.987196 2:-0.987879 3:-0.933884 4:-1 5:-0.98913 6:-0.95082 7:-0.664374 8:-0.932516 9:-0.907574 10:-0.990544 11:0.200056 
-8192 1:-0.946223 2:-0.915152 3:-0.85124 4:-0.921708 5:-0.902174 6:-0.92623 7:-0.85357 8:-0.923571 9:-0.930054 10:-0.938534 11:0.688926 
-8192 1:-0.879641 2:-0.927273 3:-0.917355 4:-0.957295 5:-0.902174 6:-0.885246 7:-0.849609 8:-0.947136 9:-0.946489 10:-0.914894 11:-0.460731 
-8192 1:-0.984635 2:-0.987879 3:-0.933884 4:-1 5:-0.98913 6:-0.967213 7:-0.862567 8:-0.95486 9:-0.977453 10:-1 11:1 
-8192 1:-0.761844 2:-0.733333 3:-0.619835 4:-0.715302 5:-0.76087 6:-0.721311 7:-0.784436 8:-0.930843 9:-0.9039 10:-0.758865 11:0.450091 
-8192 1:-0.956466 2:-0.915152 3:-0.966942 4:-0.97153 5:-0.913043 6:-0.983607 7:-0.876116 8:-0.92872 9:-0.94729 10:-0.976359 11:0.720006 
-5047.659090417685 1:-0.766965 2:-0.830303 3:-0.801653 4:-0.850534 5:-0.782609 6:-0.737705 7:-0.787355 8:-0.927179 9:-0.898221 10:-0.777778 11:-0.399972 
